{"learner":{"attributes":{"best_iteration":"99","best_ntree_limit":"100","scikit_learn":"{\"use_label_encoder\": false, \"n_estimators\": 100, \"objective\": \"binary:logistic\", \"max_depth\": null, \"max_leaves\": null, \"max_bin\": null, \"grow_policy\": null, \"learning_rate\": null, \"verbosity\": null, \"booster\": null, \"tree_method\": \"hist\", \"gamma\": null, \"min_child_weight\": null, \"max_delta_step\": null, \"subsample\": null, \"sampling_method\": null, \"colsample_bytree\": null, \"colsample_bylevel\": null, \"colsample_bynode\": null, \"reg_alpha\": null, \"reg_lambda\": null, \"scale_pos_weight\": null, \"base_score\": null, \"missing\": NaN, \"num_parallel_tree\": null, \"random_state\": null, \"n_jobs\": null, \"monotone_constraints\": null, \"interaction_constraints\": null, \"importance_type\": null, \"gpu_id\": null, \"validate_parameters\": null, \"predictor\": null, \"enable_categorical\": true, \"max_cat_to_onehot\": 3, \"eval_metric\": null, \"early_stopping_rounds\": null, \"callbacks\": null, \"classes_\": [0, 1], \"n_classes_\": 2, \"_estimator_type\": \"classifier\"}"},"feature_names":["qty_dot_url","qty_hyphen_url","qty_underline_url","qty_slash_url","qty_questionmark_url","qty_equal_url","qty_at_url","qty_and_url","qty_exclamation_url","qty_space_url","qty_tilde_url","qty_comma_url","qty_plus_url","qty_asterisk_url","qty_hashtag_url","qty_dollar_url","qty_percent_url","qty_tld_url","length_url","qty_dot_domain","qty_hyphen_domain","qty_underline_domain","qty_slash_domain","qty_questionmark_domain","qty_equal_domain","qty_at_domain","qty_and_domain","qty_exclamation_domain","qty_space_domain","qty_tilde_domain","qty_comma_domain","qty_plus_domain","qty_asterisk_domain","qty_hashtag_domain","qty_dollar_domain","qty_percent_domain","qty_vowels_domain","domain_length","domain_in_ip","server_client_domain","qty_dot_directory","qty_hyphen_directory","qty_underline_directory","qty_slash_directory","qty_questionmark_directory","qty_equal_directory","qty_at_directory","qty_and_directory","qty_exclamation_directory","qty_space_directory","qty_tilde_directory","qty_comma_directory","qty_plus_directory","qty_asterisk_directory","qty_hashtag_directory","qty_dollar_directory","qty_percent_directory","directory_length","qty_dot_file","qty_hyphen_file","qty_underline_file","qty_slash_file","qty_questionmark_file","qty_equal_file","qty_at_file","qty_and_file","qty_exclamation_file","qty_space_file","qty_tilde_file","qty_comma_file","qty_plus_file","qty_asterisk_file","qty_hashtag_file","qty_dollar_file","qty_percent_file","file_length","qty_dot_params","qty_hyphen_params","qty_underline_params","qty_slash_params","qty_questionmark_params","qty_equal_params","qty_at_params","qty_and_params","qty_exclamation_params","qty_space_params","qty_tilde_params","qty_comma_params","qty_plus_params","qty_asterisk_params","qty_hashtag_params","qty_dollar_params","qty_percent_params","params_length","tld_present_params","qty_params","email_in_url","time_response","domain_spf","asn_ip","time_domain_activation","time_domain_expiration","qty_ip_resolved","qty_nameservers","qty_mx_servers","ttl_hostname","tls_ssl_certificate","qty_redirects","url_google_index","domain_google_index","url_shortened"],"feature_types":["int","int","int","int","int","int","int","int","int","int","int","int","int","int","int","int","int","int","int","int","int","int","int","int","int","int","int","int","int","int","int","int","int","int","int","int","int","int","int","int","int","int","int","int","int","int","int","int","int","int","int","int","int","int","int","int","int","int","int","int","int","int","int","int","int","int","int","int","int","int","int","int","int","int","int","int","int","int","int","int","int","int","int","int","int","int","int","int","int","int","int","int","int","int","int","int","int","float","int","int","int","int","int","int","int","int","int","int","int","int","int"],"gradient_booster":{"model":{"gbtree_model_param":{"num_parallel_tree":"1","num_trees":"100","size_leaf_vector":"0"},"tree_info":[0,0,0,0,0,0,0,0,0,0,0,0,0,0,0,0,0,0,0,0,0,0,0,0,0,0,0,0,0,0,0,0,0,0,0,0,0,0,0,0,0,0,0,0,0,0,0,0,0,0,0,0,0,0,0,0,0,0,0,0,0,0,0,0,0,0,0,0,0,0,0,0,0,0,0,0,0,0,0,0,0,0,0,0,0,0,0,0,0,0,0,0,0,0,0,0,0,0,0,0],"trees":[{"base_weights":[-6.173352E-1,-1.7277641E0,1.3097206E0,-1.9365507E0,-6.073583E-1,1.5139534E0,-1.031234E0,-1.7706667E0,-1.9924699E0,3.7989146E-1,-1.709091E0,1.8613744E0,1.2258908E0,1.8699187E-1,-1.4375427E0,-9.8268396E-1,-1.859901E0,-5.9783095E-1,-6.666667E-2,1.3176206E0,5.9678655E-2,-1.784494E0,7.7894735E-1,1.8796147E0,7.0731705E-1,1.3849574E0,3.3240996E-2,-1.2804233E0,1.0879478E0,-1.5558698E0,1.709091E0,-1.6703297E0,1.0471204E-2,-1.8700846E0,-0E0,-1.02564104E-1,1.4467565E0,-4.370695E-1,8.3643484E-1,-1.3385013E0,-1.8466742E0,1.5223881E0,-8.75E-1,1.6824296E0,1.9379158E0,-5.16129E-1,1.3962264E0,-3.0612245E-2,1.4952077E0,-8.8384515E-1,1.0157368E0,9.411765E-1,-1.7232704E0,1.2577319E0,-4.8000002E-1,-1.858217E0,-9.650924E-1,1.7647059E0,1.5E-1,-5.394737E-1,-2.9361704E-1,-1.4745763E-1,2.4000001E-1,-4.11236E-1,-5.7138294E-1,-1.7837839E-1,4.4000003E-1,-3.3600003E-1,4.5000002E-1,4.7785422E-1,7.6595746E-2,-3.5357144E-1,-1.095101E-2,5.2927756E-1,-4.448898E-2,-4.1417325E-1,2.4000001E-1,-5.7327014E-1,-4.7675678E-1,1.7142859E-1,4.9473688E-1,-4.56E-1,2.7272728E-1,1.3761468E-1,5.22E-1,5.8260417E-1,-2.5714287E-1,3E-1,-4.0000004E-1,9.23077E-2,5E-1,-2.7407408E-1,4.1721857E-1,4.8115784E-1,1.537388E-1,-4.4739884E-1,-1.07616715E-1,3.6300942E-1,-2.8615385E-1,-1.6363637E-1,4.2222223E-1,3E-1,-5.4580647E-1,4.157143E-1,-4.4000003E-1,-5.637149E-1,3.3333337E-1,2.9834254E-2,-4.722581E-1,5.489362E-1,1.5E-1],"categories":[],"categories_nodes":[],"categories_segments":[],"categories_sizes":[],"default_left":[0,0,0,0,0,0,0,0,0,0,0,0,0,0,0,0,0,0,0,0,0,0,0,0,0,0,0,0,0,0,0,0,0,0,0,0,0,0,0,0,0,0,0,0,0,0,0,0,0,0,0,0,0,0,0,0,0,0,0,0,0,0,0,0,0,0,0,0,0,0,0,0,0,0,0,0,0,0,0,0,0,0,0,0,0,0,0,0,0,0,0,0,0,0,0,0,0,0,0,0,0,0,0,0,0,0,0,0,0,0,0],"id":0,"left_children":[1,3,5,7,9,11,13,15,17,19,21,23,25,27,29,31,33,-1,-1,35,37,39,41,43,45,47,49,51,53,55,57,59,61,63,65,67,69,71,73,75,77,79,81,83,85,87,89,91,93,95,97,99,101,103,-1,105,107,109,-1,-1,-1,-1,-1,-1,-1,-1,-1,-1,-1,-1,-1,-1,-1,-1,-1,-1,-1,-1,-1,-1,-1,-1,-1,-1,-1,-1,-1,-1,-1,-1,-1,-1,-1,-1,-1,-1,-1,-1,-1,-1,-1,-1,-1,-1,-1,-1,-1,-1,-1,-1,-1],"loss_changes":[3.5571527E4,2.4658047E3,2.9070928E3,7.892578E1,1.8040316E3,5.5716016E2,2.4194073E2,1.5638135E2,3.0820312E0,2.627352E2,1.4842627E2,5.1969727E1,5.802793E2,1.6400845E2,1.3902588E2,1.5777638E2,3.8259766E1,0E0,0E0,4.1E1,2.5252E2,1.863208E1,3.053537E1,2.5388672E1,3.5277214E1,4.212705E2,3.2617075E2,4.8107826E1,3.7038826E1,6.1348755E1,4.2247772E-2,1.0315826E1,3.8243767E1,3.2020996E1,1.1336937E1,3.3474873E1,3.5144714E1,1.18542435E2,2.3347264E2,9.810013E0,7.9645996E0,1.0763474E0,1.0587727E1,3.9798584E1,2.3619629E1,2.0537634E1,7.2883377E0,2.4725023E2,2.6654736E2,5.91985E1,6.8027405E1,6.65914E0,1.22204895E1,2.7398483E1,0E0,1.6485535E1,7.910078E1,1.3454437E-1,0E0,0E0,0E0,0E0,0E0,0E0,0E0,0E0,0E0,0E0,0E0,0E0,0E0,0E0,0E0,0E0,0E0,0E0,0E0,0E0,0E0,0E0,0E0,0E0,0E0,0E0,0E0,0E0,0E0,0E0,0E0,0E0,0E0,0E0,0E0,0E0,0E0,0E0,0E0,0E0,0E0,0E0,0E0,0E0,0E0,0E0,0E0,0E0,0E0,0E0,0E0,0E0,0E0],"parents":[2147483647,0,0,1,1,2,2,3,3,4,4,5,5,6,6,7,7,8,8,9,9,10,10,11,11,12,12,13,13,14,14,15,15,16,16,19,19,20,20,21,21,22,22,23,23,24,24,25,25,26,26,27,27,28,28,29,29,30,30,31,31,32,32,33,33,34,34,35,35,36,36,37,37,38,38,39,39,40,40,41,41,42,42,43,43,44,44,45,45,46,46,47,47,48,48,49,49,50,50,51,51,52,52,53,53,55,55,56,56,57,57],"right_children":[2,4,6,8,10,12,14,16,18,20,22,24,26,28,30,32,34,-1,-1,36,38,40,42,44,46,48,50,52,54,56,58,60,62,64,66,68,70,72,74,76,78,80,82,84,86,88,90,92,94,96,98,100,102,104,-1,106,108,110,-1,-1,-1,-1,-1,-1,-1,-1,-1,-1,-1,-1,-1,-1,-1,-1,-1,-1,-1,-1,-1,-1,-1,-1,-1,-1,-1,-1,-1,-1,-1,-1,-1,-1,-1,-1,-1,-1,-1,-1,-1,-1,-1,-1,-1,-1,-1,-1,-1,-1,-1,-1,-1],"split_conditions":[2E0,1E0,6.817E3,6.19E2,7.45E2,2E0,2E0,2E0,4.4E1,2E0,0E0,5E0,4.546E3,2.83614E-1,1.34E2,1.57E2,4.1E1,-5.9783095E-1,-6.666667E-2,1E0,2.7E1,1.529E3,4.452E3,3E1,1E0,4.436E-2,3E0,1E0,7E0,3E0,5E0,1.7E1,1E0,0E0,1.6625E4,2E0,3.86E2,2.9E2,4E0,8.564437E0,1.0358E4,1E0,3.3E1,1E0,3E0,1.325E3,1.9324E4,3E0,5.4113E4,3.44673E-1,3E0,7.4259E-2,1.4E1,8.538E3,-4.8000002E-1,1E0,7.845E3,8E0,1.5E-1,-5.394737E-1,-2.9361704E-1,-1.4745763E-1,2.4000001E-1,-4.11236E-1,-5.7138294E-1,-1.7837839E-1,4.4000003E-1,-3.3600003E-1,4.5000002E-1,4.7785422E-1,7.6595746E-2,-3.5357144E-1,-1.095101E-2,5.2927756E-1,-4.448898E-2,-4.1417325E-1,2.4000001E-1,-5.7327014E-1,-4.7675678E-1,1.7142859E-1,4.9473688E-1,-4.56E-1,2.7272728E-1,1.3761468E-1,5.22E-1,5.8260417E-1,-2.5714287E-1,3E-1,-4.0000004E-1,9.23077E-2,5E-1,-2.7407408E-1,4.1721857E-1,4.8115784E-1,1.537388E-1,-4.4739884E-1,-1.07616715E-1,3.6300942E-1,-2.8615385E-1,-1.6363637E-1,4.2222223E-1,3E-1,-5.4580647E-1,4.157143E-1,-4.4000003E-1,-5.637149E-1,3.3333337E-1,2.9834254E-2,-4.722581E-1,5.489362E-1,1.5E-1],"split_indices":[57,3,100,100,100,19,19,0,18,19,76,41,100,97,18,101,18,0,0,102,18,100,100,18,75,97,3,106,103,3,1,18,106,98,99,101,100,105,103,97,105,104,93,102,51,100,99,3,99,97,41,97,18,100,0,94,100,16,0,0,0,0,0,0,0,0,0,0,0,0,0,0,0,0,0,0,0,0,0,0,0,0,0,0,0,0,0,0,0,0,0,0,0,0,0,0,0,0,0,0,0,0,0,0,0,0,0,0,0,0,0],"split_type":[0,0,0,0,0,0,0,0,0,0,0,0,0,0,0,0,0,0,0,0,0,0,0,0,0,0,0,0,0,0,0,0,0,0,0,0,0,0,0,0,0,0,0,0,0,0,0,0,0,0,0,0,0,0,0,0,0,0,0,0,0,0,0,0,0,0,0,0,0,0,0,0,0,0,0,0,0,0,0,0,0,0,0,0,0,0,0,0,0,0,0,0,0,0,0,0,0,0,0,0,0,0,0,0,0,0,0,0,0,0,0],"sum_hessian":[1.662125E4,1.0545E4,6.07625E3,8.888E3,1.657E3,5.589E3,4.8725E2,2.249E3,6.639E3,8.7425E2,7.8275E2,2.531E3,3.058E3,1.22E2,3.6525E2,2.3E2,2.019E3,6.63775E3,1.25E0,2.2175E2,6.525E2,7.6E2,2.275E1,2.491E3,4E1,2.698E3,3.6E2,4.625E1,7.575E1,3.525E2,1.275E1,1.355E2,9.45E1,2.008E3,1.1E1,1.85E1,2.0325E2,3.9825E2,2.5425E2,9.575E1,6.6425E2,1.575E1,7E0,5.7525E2,1.91575E3,1.45E1,2.55E1,1.95E2,2.503E3,1.8625E2,1.7375E2,7.5E0,3.875E1,7.175E1,4E0,2.3175E2,1.2075E2,1.175E1,1E0,1.13E2,2.25E1,5.8E1,3.65E1,1.325E2,1.8755E3,8.25E0,2.75E0,1.15E1,7E0,1.8075E2,2.25E1,1.39E2,2.5925E2,1.305E2,1.2375E2,9.425E1,1.5E0,5.265E2,1.3775E2,2.5E0,1.325E1,5.25E0,1.75E0,2.625E1,5.49E2,1.91325E3,2.5E0,5E0,9.5E0,5.5E0,2E1,1.205E2,7.45E1,2.25325E3,2.4975E2,8.55E1,1.0075E2,1.585E2,1.525E1,1.75E0,5.75E0,1E0,3.775E1,6.9E1,2.75E0,2.305E2,1.25E0,4.425E1,7.65E1,1.075E1,1E0],"tree_param":{"num_deleted":"0","num_feature":"111","num_nodes":"111","size_leaf_vector":"0"}},{"base_weights":[-4.7087526E-1,-1.3240162E0,9.845339E-1,-1.4929051E0,-4.5032105E-1,1.1433517E0,-7.373807E-1,-1.3468956E0,-1.5417074E0,2.9347512E-1,-1.2806239E0,1.4292963E0,9.1388494E-1,1.9782786E-1,-1.0768949E0,-6.9427407E-1,-1.4221132E0,-1.5421057E0,1.5354191E-2,6.2489856E-2,1.2406797E0,-1.3397473E0,6.2568164E-1,1.450627E0,7.8470767E-1,4.451781E-1,1.2016698E0,-5.3159493E-1,1.0912555E0,-1.1674203E0,1.3515292E0,-1.3361784E0,6.751042E-2,-9.907385E-1,-1.4528617E0,-6.571615E-1,-4.6272874E-1,-3.8866317E-1,5.8689404E-1,9.523815E-1,1.4694672E0,-9.249507E-1,-1.4110532E0,1.1919063E0,-6.647053E-1,1.4915062E0,1.1875671E0,1.3938984E-1,1.214413E0,3.2100696E-2,1.047345E0,1.2866838E0,-6.1136377E-1,1.1211952E0,-9.5438623E-1,1.2279831E0,-3.565937E-1,-1.4090171E0,-7.0951766E-1,4.2200306E-1,1.277529E-1,-4.563141E-1,-3.0112463E-1,-1.22143E-1,1.8076399E-1,3.996526E-1,-3.9950272E-1,-4.3945962E-1,-1.0597419E-1,3.1585608E-2,-3.0077264E-1,-3.155486E-1,5.8286425E-2,5.5440884E-2,4.3106762E-1,3.9330062E-1,-7.077111E-2,3.203891E-1,4.8271942E-1,-3.8154596E-1,-1.8049538E-1,-4.4039062E-1,-3.5677937E-1,4.2623153E-1,1.6717446E-1,-3.5815144E-1,2.235949E-1,4.4838268E-1,-2.0473343E-1,-2.7362016E-1,3.7139216E-1,3.0794457E-1,-9.257508E-2,4.286975E-1,1.5255229E-1,-1.8883134E-1,1.6594137E-1,3.7156335E-1,-1.8002495E-2,6.412014E-2,4.144059E-1,-2.984001E-1,2.8810152E-1,-1.26849795E-2,4.2902017E-1,-5.696407E-2,-3.8653818E-1,-1.2841606E-1,4.0687615E-1,-4.3111372E-1,8.200559E-2,-3.6650366E-1,8.127752E-3],"categories":[],"categories_nodes":[],"categories_segments":[],"categories_sizes":[],"default_left":[0,0,0,0,0,0,0,0,0,0,0,0,0,0,0,0,0,0,0,0,0,0,0,0,0,0,0,0,0,0,0,0,0,0,0,0,0,0,0,0,0,0,0,0,0,0,0,0,0,0,0,0,0,0,0,0,0,0,0,0,0,0,0,0,0,0,0,0,0,0,0,0,0,0,0,0,0,0,0,0,0,0,0,0,0,0,0,0,0,0,0,0,0,0,0,0,0,0,0,0,0,0,0,0,0,0,0,0,0,0,0,0,0],"id":1,"left_children":[1,3,5,7,9,11,13,15,17,19,21,23,25,27,29,31,33,35,-1,37,39,41,43,45,47,49,51,53,55,57,59,61,63,65,67,69,-1,71,73,75,77,79,81,83,85,87,89,91,93,95,97,99,101,103,105,107,-1,109,111,-1,-1,-1,-1,-1,-1,-1,-1,-1,-1,-1,-1,-1,-1,-1,-1,-1,-1,-1,-1,-1,-1,-1,-1,-1,-1,-1,-1,-1,-1,-1,-1,-1,-1,-1,-1,-1,-1,-1,-1,-1,-1,-1,-1,-1,-1,-1,-1,-1,-1,-1,-1,-1,-1],"loss_changes":[1.9202006E4,1.437918E3,1.5638003E3,5.613867E1,9.7660126E2,3.420581E2,1.5364703E2,9.986426E1,3.9589844E0,1.8252878E2,8.504419E1,3.0871094E1,3.914463E2,8.500633E1,7.954883E1,1.048676E2,2.2982666E1,7.363281E-1,0E0,1.592245E2,9.38974E0,2.0137451E1,1.7711391E1,2.244873E1,2.1113113E1,2.753459E2,2.7821265E2,5.1378254E1,1.9713219E1,3.6887115E1,7.533264E-2,5.622635E0,2.5371325E1,1.0128762E2,2.2140137E1,1.1526936E0,0E0,1.4009459E2,1.0609172E2,3.2362206E1,3.2900085E0,1.1486031E1,6.0390625E0,1.5979767E0,6.6377506E0,1.414209E1,3.3708954E1,1.2956971E1,6.2322464E0,2.2703966E2,9.543878E1,1.7437524E2,4.9931267E1,5.495802E0,1.4535191E1,1.2419907E1,0E0,1.0916412E1,4.5417408E1,0E0,0E0,0E0,0E0,0E0,0E0,0E0,0E0,0E0,0E0,0E0,0E0,0E0,0E0,0E0,0E0,0E0,0E0,0E0,0E0,0E0,0E0,0E0,0E0,0E0,0E0,0E0,0E0,0E0,0E0,0E0,0E0,0E0,0E0,0E0,0E0,0E0,0E0,0E0,0E0,0E0,0E0,0E0,0E0,0E0,0E0,0E0,0E0,0E0,0E0,0E0,0E0,0E0,0E0],"parents":[2147483647,0,0,1,1,2,2,3,3,4,4,5,5,6,6,7,7,8,8,9,9,10,10,11,11,12,12,13,13,14,14,15,15,16,16,17,17,19,19,20,20,21,21,22,22,23,23,24,24,25,25,26,26,27,27,28,28,29,29,30,30,31,31,32,32,33,33,34,34,35,35,37,37,38,38,39,39,40,40,41,41,42,42,43,43,44,44,45,45,46,46,47,47,48,48,49,49,50,50,51,51,52,52,53,53,54,54,55,55,57,57,58,58],"right_children":[2,4,6,8,10,12,14,16,18,20,22,24,26,28,30,32,34,36,-1,38,40,42,44,46,48,50,52,54,56,58,60,62,64,66,68,70,-1,72,74,76,78,80,82,84,86,88,90,92,94,96,98,100,102,104,106,108,-1,110,112,-1,-1,-1,-1,-1,-1,-1,-1,-1,-1,-1,-1,-1,-1,-1,-1,-1,-1,-1,-1,-1,-1,-1,-1,-1,-1,-1,-1,-1,-1,-1,-1,-1,-1,-1,-1,-1,-1,-1,-1,-1,-1,-1,-1,-1,-1,-1,-1,-1,-1,-1,-1,-1,-1],"split_conditions":[2E0,1E0,6.741E3,4.78E2,6.19E2,2E0,2E0,2E0,4.4E1,1E0,0E0,3E0,2E1,4E1,1.34E2,8.2E1,0E0,1E0,1.5354191E-2,1.9237E4,1.6509E4,1.529E3,4.452E3,4.157E3,1E0,3.58E3,5E0,1E0,8.538E3,3E0,8E1,2.92E2,6.15E2,5.8E1,3.8E1,7E0,-4.6272874E-1,2.83E2,2.4E1,1.4744E4,2E1,1.9324E4,1.0358E4,2.425E3,3.3E1,3E0,5E0,1.08E3,5E0,2.49308E-1,4.546E3,8.1809E-2,1.34E2,2.52165E-1,2E0,1.6583E-1,-3.565937E-1,2E0,5.18E2,4.2200306E-1,1.277529E-1,-4.563141E-1,-3.0112463E-1,-1.22143E-1,1.8076399E-1,3.996526E-1,-3.9950272E-1,-4.3945962E-1,-1.0597419E-1,3.1585608E-2,-3.0077264E-1,-3.155486E-1,5.8286425E-2,5.5440884E-2,4.3106762E-1,3.9330062E-1,-7.077111E-2,3.203891E-1,4.8271942E-1,-3.8154596E-1,-1.8049538E-1,-4.4039062E-1,-3.5677937E-1,4.2623153E-1,1.6717446E-1,-3.5815144E-1,2.235949E-1,4.4838268E-1,-2.0473343E-1,-2.7362016E-1,3.7139216E-1,3.0794457E-1,-9.257508E-2,4.286975E-1,1.5255229E-1,-1.8883134E-1,1.6594137E-1,3.7156335E-1,-1.8002495E-2,6.412014E-2,4.144059E-1,-2.984001E-1,2.8810152E-1,-1.26849795E-2,4.2902017E-1,-5.696407E-2,-3.8653818E-1,-1.2841606E-1,4.0687615E-1,-4.3111372E-1,8.200559E-2,-3.6650366E-1,8.127752E-3],"split_indices":[57,3,100,100,100,19,19,0,18,1,76,41,57,18,18,101,98,17,0,99,99,100,100,100,75,105,41,106,100,3,57,105,105,105,18,36,0,105,18,99,18,99,105,100,93,51,57,100,59,97,100,97,18,97,104,97,0,2,105,0,0,0,0,0,0,0,0,0,0,0,0,0,0,0,0,0,0,0,0,0,0,0,0,0,0,0,0,0,0,0,0,0,0,0,0,0,0,0,0,0,0,0,0,0,0,0,0,0,0,0,0,0,0],"split_type":[0,0,0,0,0,0,0,0,0,0,0,0,0,0,0,0,0,0,0,0,0,0,0,0,0,0,0,0,0,0,0,0,0,0,0,0,0,0,0,0,0,0,0,0,0,0,0,0,0,0,0,0,0,0,0,0,0,0,0,0,0,0,0,0,0,0,0,0,0,0,0,0,0,0,0,0,0,0,0,0,0,0,0,0,0,0,0,0,0,0,0,0,0,0,0,0,0,0,0,0,0,0,0,0,0,0,0,0,0,0,0,0,0],"sum_hessian":[1.5462622E4,9.748358E3,5.7142637E3,8.168621E3,1.5797373E3,5.232032E3,4.8223148E2,2.0534856E3,6.1151353E3,8.336179E2,7.461193E2,2.32703E3,2.9050022E3,1.2855037E2,3.536811E2,2.1327185E2,1.8402137E3,6.1136387E3,1.4966339E0,6.710433E2,1.6257462E2,7.239631E2,2.21563E1,2.2512805E3,7.5749565E1,1.1060908E3,1.7989114E3,7.099379E1,5.7556587E1,3.414712E2,1.2209907E1,1.1533382E2,9.7938034E1,1.246536E2,1.7155602E3,2.9760718E0,6.1106626E3,3.608539E2,3.101894E2,7.421631E1,8.83583E1,1.0824682E2,6.1571625E2,1.5452171E1,6.704129E0,1.9444457E3,3.0683472E2,3.0807795E1,4.494177E1,6.5667505E2,4.4941577E2,1.7186151E3,8.029636E1,1.412479E1,5.6868996E1,5.4735447E1,2.8211424E0,2.2217238E2,1.1929881E2,1.1033012E1,1.1768942E0,7.181886E1,4.3514954E1,5.2024178E1,4.5913857E1,1.5581881E1,1.09071724E2,1.6967064E3,1.8853773E1,1.1446431E0,1.8314289E0,1.6843637E2,1.9241756E2,2.1140282E2,9.878657E1,5.6931347E1,1.7284964E1,2.5027046E1,6.3331257E1,5.080456E1,5.744226E1,4.8550653E2,1.302097E2,1.04464245E1,5.005746E0,4.9862714E0,1.7178578E0,1.9419866E3,2.4591246E0,6.792822E0,3.000419E2,9.904057E0,2.0903738E1,3.3679626E1,1.1262142E1,2.8923624E2,3.674388E2,3.8314258E2,6.627318E1,1.3960742E2,1.5790076E3,6.484842E1,1.5447942E1,3.1441836E0,1.0980607E1,1.7770594E1,3.9098404E1,3.7668197E0,5.0968624E1,2.1867502E2,3.4973514E0,6.99821E1,4.931671E1],"tree_param":{"num_deleted":"0","num_feature":"111","num_nodes":"113","size_leaf_vector":"0"}},{"base_weights":[-3.9412302E-1,-1.1211121E0,7.970211E-1,-1.2828883E0,-3.5370106E-1,1.0019007E0,-2.1176036E-1,-1.1334018E0,-1.3385983E0,2.0953998E-1,-1.0805037E0,8.150054E-1,1.265304E0,5.675198E-1,-5.764356E-1,-6.4426965E-1,-1.2027613E0,-1.3388454E0,-5.813768E-2,9.032359E-1,-1.9000601E-2,-1.1313523E0,4.8723826E-1,5.525862E-1,1.0850841E0,1.1027035E0,1.3458817E0,7.237898E-1,-4.0421817E-1,-8.683947E-1,2.1835092E-1,-9.9516165E-1,-6.6966005E-2,-1.2200712E0,-4.7644415E-1,-1.4504683E-1,-4.017129E-1,5.6964296E-1,1.2077744E0,-2.329353E-1,1.0143182E0,-9.189204E-1,-1.250818E0,9.550542E-1,-5.338946E-1,6.891138E-1,-6.77891E-1,1.2155224E0,-5.5060115E-2,1.1915317E0,5.5529374E-1,1.3507386E0,-3.8451213E-1,-1.6454324E-1,9.102169E-1,-1.3062111E0,-4.9569598E-1,6.8299305E-1,-1.2220976E0,-3.085142E-1,3.2130697E-1,1.2260546E-1,-2.974713E-1,-3.8547534E-1,-3.082753E-1,-1.8695568E-1,4.1206002E-1,-1.779953E-1,2.3327826E-1,3.996763E-1,-1.9418028E-1,2.6571622E-2,-2.5413662E-1,4.0815848E-1,1.7073195E-1,-3.449905E-1,-1.5354776E-1,-3.8073033E-1,-2.1742803E-1,1.24513574E-1,3.623951E-1,-2.9886505E-1,1.8690747E-1,-1.0391741E-1,2.4896832E-1,3.7459892E-1,-5.7875353E-1,3.7741566E-1,-4.8355696E-1,-9.0036854E-2,3.9142653E-1,3.6079162E-1,-3.943737E-1,2.995653E-1,-1.5017834E-3,4.0870237E-1,2.1839169E-1,-2.4523969E-1,1.1615822E-1,-1.7918983E-1,2.2955143E-1,2.8895268E-1,-1.9253445E-1,-1.24723464E-1,-4.0227076E-1,-2.3989214E-1,2.1709038E-2,3.4137705E-1,-1.8574727E-1,-4.2516068E-1,8.2618296E-2],"categories":[],"categories_nodes":[],"categories_segments":[],"categories_sizes":[],"default_left":[0,0,0,0,0,0,0,0,0,0,0,0,0,0,0,0,0,0,0,0,0,0,0,0,0,0,0,0,0,0,0,0,0,0,0,0,0,0,0,0,0,0,0,0,0,0,0,0,0,0,0,0,0,0,0,0,0,0,0,0,0,0,0,0,0,0,0,0,0,0,0,0,0,0,0,0,0,0,0,0,0,0,0,0,0,0,0,0,0,0,0,0,0,0,0,0,0,0,0,0,0,0,0,0,0,0,0,0,0,0,0],"id":2,"left_children":[1,3,5,7,9,11,13,15,17,19,21,23,25,27,29,31,33,35,-1,37,39,41,43,45,47,49,51,53,-1,55,57,59,61,63,65,-1,-1,67,69,71,73,75,77,79,81,83,85,87,89,91,93,95,97,99,101,103,105,107,109,-1,-1,-1,-1,-1,-1,-1,-1,-1,-1,-1,-1,-1,-1,-1,-1,-1,-1,-1,-1,-1,-1,-1,-1,-1,-1,-1,-1,-1,-1,-1,-1,-1,-1,-1,-1,-1,-1,-1,-1,-1,-1,-1,-1,-1,-1,-1,-1,-1,-1,-1,-1],"loss_changes":[1.1608153E4,1.0329912E3,1.0503164E3,5.57334E1,5.940814E2,2.0687793E2,2.4430797E2,6.2766357E1,1.15625E0,1.2972287E2,5.1055115E1,1.7468933E2,2.1458496E1,8.302486E1,1.3601498E2,4.74881E1,2.0027344E1,1.9726562E-1,0E0,1.991121E1,1.3649353E2,1.4431213E1,1.0351387E1,2.1154364E2,1.8117664E2,2.7821045E1,1.0321289E1,4.22399E1,0E0,6.923764E1,1.06618706E2,1.1118042E1,3.99064E1,1.8656006E1,1.1659638E1,0E0,0E0,2.4320927E1,2.5132828E1,1.0107149E2,1.5550346E1,2.055127E1,2.8329468E0,1.4773808E0,4.4259048E0,1.6523071E2,3.0613043E2,1.3343701E2,4.2371986E1,1.5585022E1,2.078078E1,7.413574E0,1.6673009E0,1.8535015E1,1.789656E1,5.5073547E0,4.0280323E1,7.187785E1,1.1757637E1,0E0,0E0,0E0,0E0,0E0,0E0,0E0,0E0,0E0,0E0,0E0,0E0,0E0,0E0,0E0,0E0,0E0,0E0,0E0,0E0,0E0,0E0,0E0,0E0,0E0,0E0,0E0,0E0,0E0,0E0,0E0,0E0,0E0,0E0,0E0,0E0,0E0,0E0,0E0,0E0,0E0,0E0,0E0,0E0,0E0,0E0,0E0,0E0,0E0,0E0,0E0,0E0],"parents":[2147483647,0,0,1,1,2,2,3,3,4,4,5,5,6,6,7,7,8,8,9,9,10,10,11,11,12,12,13,13,14,14,15,15,16,16,17,17,19,19,20,20,21,21,22,22,23,23,24,24,25,25,26,26,27,27,29,29,30,30,31,31,32,32,33,33,34,34,37,37,38,38,39,39,40,40,41,41,42,42,43,43,44,44,45,45,46,46,47,47,48,48,49,49,50,50,51,51,52,52,53,53,54,54,55,55,56,56,57,57,58,58],"right_children":[2,4,6,8,10,12,14,16,18,20,22,24,26,28,30,32,34,36,-1,38,40,42,44,46,48,50,52,54,-1,56,58,60,62,64,66,-1,-1,68,70,72,74,76,78,80,82,84,86,88,90,92,94,96,98,100,102,104,106,108,110,-1,-1,-1,-1,-1,-1,-1,-1,-1,-1,-1,-1,-1,-1,-1,-1,-1,-1,-1,-1,-1,-1,-1,-1,-1,-1,-1,-1,-1,-1,-1,-1,-1,-1,-1,-1,-1,-1,-1,-1,-1,-1,-1,-1,-1,-1,-1,-1,-1,-1,-1,-1],"split_conditions":[2E0,1E0,4.936E3,1.08E3,7.45E2,3.6E3,2E0,2E0,4.4E1,2E0,0E0,4.8E1,3E0,1E1,6.2E1,2.22E2,3.5E1,6E0,-5.813768E-2,2.59E2,3.3E1,2E0,4.452E3,2.8E1,3E0,3.21E3,4E0,2.89E2,-4.0421817E-1,5.6E2,3E0,2.8E1,1.52E2,2.5532E4,3.6666E4,-1.4504683E-1,-4.017129E-1,0E0,4.65E2,6.11485E-1,4E0,3.591E3,1E1,1.1E1,3.3E1,4.436E-2,5.3831E4,3E0,1E0,4E0,2E0,5E0,1.11E2,5.5E1,4E0,1.1E1,3E0,7.684E3,1E0,-3.085142E-1,3.2130697E-1,1.2260546E-1,-2.974713E-1,-3.8547534E-1,-3.082753E-1,-1.8695568E-1,4.1206002E-1,-1.779953E-1,2.3327826E-1,3.996763E-1,-1.9418028E-1,2.6571622E-2,-2.5413662E-1,4.0815848E-1,1.7073195E-1,-3.449905E-1,-1.5354776E-1,-3.8073033E-1,-2.1742803E-1,1.24513574E-1,3.623951E-1,-2.9886505E-1,1.8690747E-1,-1.0391741E-1,2.4896832E-1,3.7459892E-1,-5.7875353E-1,3.7741566E-1,-4.8355696E-1,-9.0036854E-2,3.9142653E-1,3.6079162E-1,-3.943737E-1,2.995653E-1,-1.5017834E-3,4.0870237E-1,2.1839169E-1,-2.4523969E-1,1.1615822E-1,-1.7918983E-1,2.2955143E-1,2.8895268E-1,-1.9253445E-1,-1.24723464E-1,-4.0227076E-1,-2.3989214E-1,2.1709038E-2,3.4137705E-1,-1.8574727E-1,-4.2516068E-1,8.2618296E-2],"split_indices":[57,3,100,100,100,105,19,19,18,19,76,18,3,103,18,101,18,37,0,101,18,0,100,37,41,100,59,105,0,105,41,18,100,99,99,0,0,107,101,97,103,105,36,93,93,97,99,60,5,102,19,103,18,18,102,101,3,100,2,0,0,0,0,0,0,0,0,0,0,0,0,0,0,0,0,0,0,0,0,0,0,0,0,0,0,0,0,0,0,0,0,0,0,0,0,0,0,0,0,0,0,0,0,0,0,0,0,0,0,0,0],"split_type":[0,0,0,0,0,0,0,0,0,0,0,0,0,0,0,0,0,0,0,0,0,0,0,0,0,0,0,0,0,0,0,0,0,0,0,0,0,0,0,0,0,0,0,0,0,0,0,0,0,0,0,0,0,0,0,0,0,0,0,0,0,0,0,0,0,0,0,0,0,0,0,0,0,0,0,0,0,0,0,0,0,0,0,0,0,0,0,0,0,0,0,0,0,0,0,0,0,0,0,0,0,0,0,0,0,0,0,0,0,0,0],"sum_hessian":[1.3403096E4,8.323243E3,5.0798525E3,6.8735693E3,1.4496735E3,4.2223223E3,8.575305E2,1.8719395E3,5.00163E3,8.1713806E2,6.325354E2,2.4722527E3,1.7500693E3,2.7319012E2,5.843404E2,2.3375569E2,1.6381838E3,5.000381E3,1.2491776E0,2.017644E2,6.1537366E2,6.129337E2,1.9601723E1,1.2554515E3,1.2168011E3,5.8475574E2,1.1653136E3,2.5315314E2,2.0036997E1,4.2728702E2,1.5705336E2,1.4493729E2,8.8818405E1,1.5993867E3,3.8797165E1,1.7194444E0,4.998661E3,9.765888E1,1.0410552E2,5.1046362E2,1.0491002E2,2.2375246E2,3.8918124E2,1.3487396E1,6.114327E0,1.1304612E3,1.2499039E2,1.0918247E3,1.2497648E2,5.0210278E2,8.265295E1,1.1622706E3,3.0428953E0,4.3932125E1,2.0922101E2,1.9532738E2,2.3195964E2,1.1914642E2,3.7906937E1,1.4313828E2,1.7990156E0,5.9016254E1,2.9802145E1,1.1921057E3,4.0728094E2,3.6560318E1,2.2368495E0,1.45325985E1,8.312628E1,9.782307E1,6.282457E0,3.3562848E2,1.7483513E2,5.786024E1,4.7049778E1,1.415758E2,8.217665E1,3.7474454E2,1.4436685E1,5.1445785E0,8.342817E0,4.467824E0,1.6465032E0,1.3512138E2,9.953398E2,4.9216274E1,7.577411E1,1.0761917E3,1.5633088E1,1.0655303E2,1.8423447E1,5.0040512E2,1.697669E0,4.5709587E1,3.6943363E1,1.1398472E3,2.2423555E1,1.9112964E0,1.1315988E0,3.022212E1,1.3710006E1,2.0268425E2,6.5367665E0,7.8112164E0,1.8751616E2,1.5084254E2,8.1117096E1,8.839137E1,3.0755049E1,3.358486E1,4.3220744E0],"tree_param":{"num_deleted":"0","num_feature":"111","num_nodes":"111","size_leaf_vector":"0"}},{"base_weights":[-3.4218776E-1,-9.8729825E-1,6.654755E-1,-1.1545466E0,-2.8109252E-1,8.4446716E-1,-1.6911179E-1,-9.799214E-1,-1.221574E0,1.8570179E-1,-8.9196086E-1,1.1122508E0,6.481507E-1,-5.893813E-1,3.193821E-1,-4.880895E-1,-1.0548723E0,-9.500162E-2,-1.2219893E0,-1.6612287E-1,5.608575E-1,-9.4272476E-1,5.2066386E-1,8.95513E-1,1.1731081E0,3.3903173E-1,9.488212E-1,-9.774825E-1,-2.322833E-1,4.629903E-1,-1.261808E0,-1.0166631E0,-1.4335127E-1,-5.855718E-1,-1.095202E0,-1.1388313E0,-1.2269921E0,-3.626603E-1,1.4684243E0,9.6183196E-2,1.0508208E0,-5.4832876E-1,-1.0497179E0,1.1471409E0,-1.3940011E-1,9.6936023E-1,2.0938979E-1,1.1798189E0,3.543105E-1,4.4561687E-1,-1.3874378E0,1.0536158E0,-1.9829804E-1,-1.0299041E0,9.241929E-1,4.9967E-3,-1.0754386E0,6.6837573E-1,-5.540273E-1,-4.3453383E-1,-3.9536875E-1,-3.4708005E-1,-2.1178725E-1,5.09827E-2,-2.7614582E-1,3.8493466E-1,-2.7641284E-1,-3.3500567E-1,-1.081824E-1,-3.4276566E-1,-4.786112E-2,-8.209047E-2,-3.6816996E-1,-1.7144723E-1,2.3623052E-1,4.7382432E-1,1.1831732E-2,1.0801308E-1,-4.3061945E-1,1.9350275E-1,3.7084022E-1,-2.6131147E-1,-7.0630066E-2,-3.468948E-1,-2.635677E-1,1.006623E-1,3.6445248E-1,2.1713355E-1,-1.8042791E-1,2.9688743E-1,-1.466014E-1,-3.0858088E-1,2.3708633E-1,2.8131542E-1,3.6143866E-1,3.0628562E-1,-4.0226543E-1,1.7631996E-1,-1.8178926E-1,-6.205711E-1,6.438688E-2,3.2898897E-1,-6.03606E-1,3.586177E-2,-3.7293977E-1,-3.4220567E-1,-1.4803807E-1,-2.2338156E-2,3.4651315E-1,4.599936E-2,-3.1761444E-1,-3.360889E-1,1.1053408E-1,2.2159216E-1,-2.648068E-1,2.1092801E-1,-3.1646442E-1,7.824062E-2,-2.6224846E-1],"categories":[],"categories_nodes":[],"categories_segments":[],"categories_sizes":[],"default_left":[0,0,0,0,0,0,0,0,0,0,0,0,0,0,0,0,0,0,0,0,0,0,0,0,0,0,0,0,0,0,0,0,0,0,0,0,0,0,0,0,0,0,0,0,0,0,0,0,0,0,0,0,0,0,0,0,0,0,0,0,0,0,0,0,0,0,0,0,0,0,0,0,0,0,0,0,0,0,0,0,0,0,0,0,0,0,0,0,0,0,0,0,0,0,0,0,0,0,0,0,0,0,0,0,0,0,0,0,0,0,0,0,0,0,0,0,0,0,0],"id":3,"left_children":[1,3,5,7,9,11,13,15,17,19,21,23,25,27,29,31,33,-1,35,37,39,41,43,45,47,49,51,53,55,57,59,61,63,65,67,69,71,73,75,77,79,81,83,85,87,89,91,93,95,97,99,101,103,105,107,109,111,113,115,117,-1,-1,-1,-1,-1,-1,-1,-1,-1,-1,-1,-1,-1,-1,-1,-1,-1,-1,-1,-1,-1,-1,-1,-1,-1,-1,-1,-1,-1,-1,-1,-1,-1,-1,-1,-1,-1,-1,-1,-1,-1,-1,-1,-1,-1,-1,-1,-1,-1,-1,-1,-1,-1,-1,-1,-1,-1,-1,-1],"loss_changes":[7.344743E3,8.13271E2,6.589712E2,6.3986816E1,3.7664868E2,1.9019531E2,1.6025249E2,5.661389E1,1.1240234E0,9.898374E1,4.1513885E1,1.9193604E1,1.9465692E2,5.790451E1,8.26058E1,3.7537014E1,2.4795288E1,0E0,2.7392578E-1,1.2498811E2,8.250397E1,2.2741852E1,8.6323185E0,1.7059784E1,6.1488037E0,1.9124768E2,1.2798126E2,2.095819E1,4.3971786E1,6.969165E1,8.352623E-1,2.7339172E0,3.0914019E1,6.926933E1,1.9110596E1,6.993103E-1,5.3222656E-1,8.3701935E1,6.564209E0,7.621634E1,1.2476242E1,1.191283E1,6.894623E0,1.7590618E-1,4.7698116E0,9.563751E0,2.553853E1,6.0354004E0,1.396316E1,1.4628502E2,6.6439606E1,1.3065381E2,2.9974617E1,1.1071747E1,1.4486823E0,2.7379349E1,3.5390282E0,3.0793365E1,3.6194443E1,1.2729864E0,0E0,0E0,0E0,0E0,0E0,0E0,0E0,0E0,0E0,0E0,0E0,0E0,0E0,0E0,0E0,0E0,0E0,0E0,0E0,0E0,0E0,0E0,0E0,0E0,0E0,0E0,0E0,0E0,0E0,0E0,0E0,0E0,0E0,0E0,0E0,0E0,0E0,0E0,0E0,0E0,0E0,0E0,0E0,0E0,0E0,0E0,0E0,0E0,0E0,0E0,0E0,0E0,0E0,0E0,0E0,0E0,0E0,0E0,0E0],"parents":[2147483647,0,0,1,1,2,2,3,3,4,4,5,5,6,6,7,7,8,8,9,9,10,10,11,11,12,12,13,13,14,14,15,15,16,16,18,18,19,19,20,20,21,21,22,22,23,23,24,24,25,25,26,26,27,27,28,28,29,29,30,30,31,31,32,32,33,33,34,34,35,35,36,36,37,37,38,38,39,39,40,40,41,41,42,42,43,43,44,44,45,45,46,46,47,47,48,48,49,49,50,50,51,51,52,52,53,53,54,54,55,55,56,56,57,57,58,58,59,59],"right_children":[2,4,6,8,10,12,14,16,18,20,22,24,26,28,30,32,34,-1,36,38,40,42,44,46,48,50,52,54,56,58,60,62,64,66,68,70,72,74,76,78,80,82,84,86,88,90,92,94,96,98,100,102,104,106,108,110,112,114,116,118,-1,-1,-1,-1,-1,-1,-1,-1,-1,-1,-1,-1,-1,-1,-1,-1,-1,-1,-1,-1,-1,-1,-1,-1,-1,-1,-1,-1,-1,-1,-1,-1,-1,-1,-1,-1,-1,-1,-1,-1,-1,-1,-1,-1,-1,-1,-1,-1,-1,-1,-1,-1,-1,-1,-1,-1,-1,-1,-1],"split_conditions":[2E0,1E0,4.936E3,9.39E2,4.25E2,2E0,3E0,2E0,1E0,1.6509E4,0E0,3.84E2,4.8E1,3.21201E-1,8.483E3,1.8E1,0E0,-9.500162E-2,2.716E3,5E0,2.1E1,1.603E3,2.425E3,3.955E3,6E0,5E0,4E0,1E0,7.761E3,9.62E2,1E0,2.93E2,3.63E2,5.8E1,3.5E1,2.859E3,6E0,8.5E1,2E0,3E0,2.5E1,1.792E3,3.57E3,2.49308E-1,2E0,1E0,1.4744E4,2.4E1,2.22E3,5.5053E4,2E1,8E0,2.425E3,3.395E3,5.681E3,2E0,1E0,5E0,1E0,1.1E1,-3.9536875E-1,-3.4708005E-1,-2.1178725E-1,5.09827E-2,-2.7614582E-1,3.8493466E-1,-2.7641284E-1,-3.3500567E-1,-1.081824E-1,-3.4276566E-1,-4.786112E-2,-8.209047E-2,-3.6816996E-1,-1.7144723E-1,2.3623052E-1,4.7382432E-1,1.1831732E-2,1.0801308E-1,-4.3061945E-1,1.9350275E-1,3.7084022E-1,-2.6131147E-1,-7.0630066E-2,-3.468948E-1,-2.635677E-1,1.006623E-1,3.6445248E-1,2.1713355E-1,-1.8042791E-1,2.9688743E-1,-1.466014E-1,-3.0858088E-1,2.3708633E-1,2.8131542E-1,3.6143866E-1,3.0628562E-1,-4.0226543E-1,1.7631996E-1,-1.8178926E-1,-6.205711E-1,6.438688E-2,3.2898897E-1,-6.03606E-1,3.586177E-2,-3.7293977E-1,-3.4220567E-1,-1.4803807E-1,-2.2338156E-2,3.4651315E-1,4.599936E-2,-3.1761444E-1,-3.360889E-1,1.1053408E-1,2.2159216E-1,-2.648068E-1,2.1092801E-1,-3.1646442E-1,7.824062E-2,-2.6224846E-1],"split_indices":[57,3,100,100,100,19,3,19,17,99,76,105,18,97,100,101,98,0,100,102,18,100,100,100,41,103,41,94,100,101,106,105,100,105,18,101,37,101,104,0,18,105,105,97,0,69,99,18,100,99,37,74,100,105,100,107,60,41,106,75,0,0,0,0,0,0,0,0,0,0,0,0,0,0,0,0,0,0,0,0,0,0,0,0,0,0,0,0,0,0,0,0,0,0,0,0,0,0,0,0,0,0,0,0,0,0,0,0,0,0,0,0,0,0,0,0,0,0,0],"split_type":[0,0,0,0,0,0,0,0,0,0,0,0,0,0,0,0,0,0,0,0,0,0,0,0,0,0,0,0,0,0,0,0,0,0,0,0,0,0,0,0,0,0,0,0,0,0,0,0,0,0,0,0,0,0,0,0,0,0,0,0,0,0,0,0,0,0,0,0,0,0,0,0,0,0,0,0,0,0,0,0,0,0,0,0,0,0,0,0,0,0,0,0,0,0,0,0,0,0,0,0,0,0,0,0,0,0,0,0,0,0,0,0,0,0,0,0,0,0,0],"sum_hessian":[1.1296653E4,6.8873564E3,4.4092964E3,5.5680576E3,1.319299E3,3.6306326E3,7.7866376E2,1.5487502E3,4.0193074E3,7.4823334E2,5.710656E2,1.5338007E3,2.096832E3,4.1844952E2,3.6021423E2,2.0579866E2,1.3429515E3,2.1939092E0,4.0171135E3,3.8641074E2,3.6182257E2,5.5157684E2,1.948876E1,3.397013E2,1.1940994E3,1.0349395E3,1.0618925E3,1.9968767E2,2.1876186E2,3.308708E2,2.9343443E1,8.046924E1,1.25329414E2,1.0750305E2,1.2354485E3,2.4093596E2,3.7761775E3,3.4563037E2,4.0780354E1,1.8631776E2,1.755048E2,1.19009834E2,4.32567E2,9.620176E0,9.868584E0,3.063194E2,3.3381878E1,1.183955E3,1.0144431E1,9.754604E2,5.947903E1,9.7307874E2,8.881376E1,1.9477687E2,4.9108033E0,1.714942E2,4.7267666E1,2.7556384E2,5.530695E1,2.4185193E0,2.6924923E1,5.356388E1,2.6905361E1,8.9877556E1,3.545186E1,1.5945932E1,9.155712E1,1.1998385E3,3.560995E1,2.398579E2,1.078062E0,1.2415102E0,3.774936E3,2.9294205E2,5.2688343E1,3.7743523E1,3.0368314E0,1.5958878E2,2.6728989E1,5.642408E1,1.1908072E2,5.770798E1,6.1301853E1,2.630089E2,1.6955807E2,1.1992874E0,8.420889E0,3.2431154E0,6.6254683E0,3.0243723E2,3.8821764E0,1.0415008E1,2.2966871E1,1.14325966E2,1.069629E3,7.566583E0,2.5778477E0,8.59715E2,1.15745384E2,4.153066E1,1.7948372E1,9.6024774E2,1.2830985E1,6.877737E1,2.0036394E1,1.6050458E2,3.4272285E1,1.0492474E0,3.861556E0,1.5125723E2,2.023696E1,4.6060795E1,1.2068725E0,2.6412262E2,1.1441227E1,1.5642129E1,3.966482E1,1.094373E0,1.3241463E0],"tree_param":{"num_deleted":"0","num_feature":"111","num_nodes":"119","size_leaf_vector":"0"}},{"base_weights":[-3.0130565E-1,-1.0653038E0,3.7119082E-1,-8.694715E-1,-1.1503568E0,3.220355E-2,7.994245E-1,-4.5893124E-1,-9.4671696E-1,-8.867879E-2,-1.1506302E0,2.475019E-1,-5.7353246E-1,8.7737554E-1,-8.159407E-2,-8.5178643E-1,-1.781055E-1,-1.0402772E0,-7.2908896E-1,-3.4524232E-1,-9.8913215E-2,6.8447345E-1,1.794978E-2,-6.467719E-1,1.2168232E0,9.3123037E-1,-2.7043803E-3,-4.1938013E-1,1.1644702E0,-9.5200676E-1,2.639651E-1,1.4686921E0,-3.258237E-1,-1.0680865E0,-3.8440686E-1,-9.196519E-1,-1.7293692E-1,2.9203355E-1,9.4148946E-1,-3.5760492E-1,3.9861572E-1,-9.3651515E-1,-3.514688E-1,-5.6040272E-2,3.853359E-1,1.0070281E0,2.0624734E-1,-2.6390594E-1,9.5001185E-1,-6.7612547E-1,1.0870576E0,3.650896E-1,-8.430735E-2,-3.133372E-1,-1.3463163E-1,-1.4772266E-1,3.5809815E-1,1.8006267E-1,6.364266E-1,-2.727331E-2,-2.5589553E-1,-3.2273212E-1,1.358719E-1,2.7281713E-1,-3.3745843E-1,2.0609076E-1,-2.8111532E-1,4.2599967E-1,-1.611097E-1,2.1887775E-1,-5.990256E-2,5.2662216E-2,3.01112E-1,-1.4708775E-1,1.211632E-1,-1.58384E-1,1.7426163E-1,-2.9459113E-1,1.1283344E-2,6.7809105E-2,-1.8541321E-1,3.1514892E-1,-1.0757127E-3,3.359743E-1,-3.565058E-1,-1.1988547E-1,2.6718527E-1,3.4163287E-1,-2.4924158E-1,-9.808298E-3,-3.609672E-1,3.5549882E-1,2.125801E-2],"categories":[],"categories_nodes":[],"categories_segments":[],"categories_sizes":[],"default_left":[0,0,0,0,0,0,0,0,0,0,0,0,0,0,0,0,0,0,0,0,0,0,0,0,0,0,0,0,0,0,0,0,0,0,0,0,0,0,0,0,0,0,0,0,0,0,0,0,0,0,0,0,0,0,0,0,0,0,0,0,0,0,0,0,0,0,0,0,0,0,0,0,0,0,0,0,0,0,0,0,0,0,0,0,0,0,0,0,0,0,0,0,0],"id":4,"left_children":[1,3,5,7,9,11,13,15,17,-1,19,21,23,25,27,29,31,33,35,-1,-1,37,39,41,43,45,47,49,51,53,55,57,59,61,63,65,67,69,71,73,75,77,79,-1,-1,81,83,85,87,89,91,-1,-1,-1,-1,-1,-1,-1,-1,-1,-1,-1,-1,-1,-1,-1,-1,-1,-1,-1,-1,-1,-1,-1,-1,-1,-1,-1,-1,-1,-1,-1,-1,-1,-1,-1,-1,-1,-1,-1,-1,-1,-1],"loss_changes":[4.853825E3,7.2663086E1,7.2940326E2,4.216394E1,3.798828E-1,3.660438E2,1.5254016E2,2.353051E1,2.2241943E1,0E0,6.90918E-2,2.076911E2,9.729918E1,9.667847E1,7.683128E1,1.0227692E1,3.1237383E1,1.3955505E1,3.6189224E1,0E0,0E0,7.165204E1,1.9436185E2,6.0228333E1,3.018753E0,1.0541638E2,2.9768614E1,5.6210155E1,3.2973633E0,3.3500595E0,6.3091416E0,4.7299786E0,1.4393212E1,9.31543E0,3.3212025E1,7.777817E0,5.2240063E1,6.117501E1,2.033722E1,6.934852E1,1.1432153E2,1.5828766E1,5.434721E1,0E0,0E0,7.64375E1,2.3475745E2,1.506473E1,9.598877E0,4.173137E1,2.0328426E0,0E0,0E0,0E0,0E0,0E0,0E0,0E0,0E0,0E0,0E0,0E0,0E0,0E0,0E0,0E0,0E0,0E0,0E0,0E0,0E0,0E0,0E0,0E0,0E0,0E0,0E0,0E0,0E0,0E0,0E0,0E0,0E0,0E0,0E0,0E0,0E0,0E0,0E0,0E0,0E0,0E0,0E0],"parents":[2147483647,0,0,1,1,2,2,3,3,4,4,5,5,6,6,7,7,8,8,10,10,11,11,12,12,13,13,14,14,15,15,16,16,17,17,18,18,21,21,22,22,23,23,24,24,25,25,26,26,27,27,28,28,29,29,30,30,31,31,32,32,33,33,34,34,35,35,36,36,37,37,38,38,39,39,40,40,41,41,42,42,45,45,46,46,47,47,48,48,49,49,50,50],"right_children":[2,4,6,8,10,12,14,16,18,-1,20,22,24,26,28,30,32,34,36,-1,-1,38,40,42,44,46,48,50,52,54,56,58,60,62,64,66,68,70,72,74,76,78,80,-1,-1,82,84,86,88,90,92,-1,-1,-1,-1,-1,-1,-1,-1,-1,-1,-1,-1,-1,-1,-1,-1,-1,-1,-1,-1,-1,-1,-1,-1,-1,-1,-1,-1,-1,-1,-1,-1,-1,-1,-1,-1,-1,-1,-1,-1,-1,-1],"split_conditions":[1E0,1.488E3,3E0,2E0,6E0,3.473E3,2E0,2.93E2,2.2612E4,-8.867879E-2,4.3E1,2E0,1E0,3E0,3.594E3,2.1E1,2.96E2,5E0,2.4E1,-3.4524232E-1,-9.8913215E-2,4E0,2.9E1,1E0,7E0,2.8E1,7E0,1.6E1,2E0,3.24E2,1E0,1.5E1,3.63E2,3E0,1E0,2.2878E4,5.9E1,3.86E2,9E0,4.7583E4,8.1809E-2,3.8E1,2E0,-5.6040272E-2,3.853359E-1,7.274E3,5.5002E4,1E0,7.791E3,2E0,6.444E3,3.650896E-1,-8.430735E-2,-3.133372E-1,-1.3463163E-1,-1.4772266E-1,3.5809815E-1,1.8006267E-1,6.364266E-1,-2.727331E-2,-2.5589553E-1,-3.2273212E-1,1.358719E-1,2.7281713E-1,-3.3745843E-1,2.0609076E-1,-2.8111532E-1,4.2599967E-1,-1.611097E-1,2.1887775E-1,-5.990256E-2,5.2662216E-2,3.01112E-1,-1.4708775E-1,1.211632E-1,-1.58384E-1,1.7426163E-1,-2.9459113E-1,1.1283344E-2,6.7809105E-2,-1.8541321E-1,3.1514892E-1,-1.0757127E-3,3.359743E-1,-3.565058E-1,-1.1988547E-1,2.6718527E-1,3.4163287E-1,-2.4924158E-1,-9.808298E-3,-3.609672E-1,3.5549882E-1,2.125801E-2],"split_indices":[3,100,3,19,37,100,102,105,99,0,18,19,110,41,105,18,105,102,18,0,0,57,18,75,57,37,3,93,59,101,1,18,100,1,104,99,105,100,105,99,97,18,19,0,0,100,99,2,100,104,100,0,0,0,0,0,0,0,0,0,0,0,0,0,0,0,0,0,0,0,0,0,0,0,0,0,0,0,0,0,0,0,0,0,0,0,0,0,0,0,0,0,0],"split_type":[0,0,0,0,0,0,0,0,0,0,0,0,0,0,0,0,0,0,0,0,0,0,0,0,0,0,0,0,0,0,0,0,0,0,0,0,0,0,0,0,0,0,0,0,0,0,0,0,0,0,0,0,0,0,0,0,0,0,0,0,0,0,0,0,0,0,0,0,0,0,0,0,0,0,0,0,0,0,0,0,0,0,0,0,0,0,0,0,0,0,0,0,0],"sum_hessian":[9.445402E3,4.4216016E3,5.023801E3,1.3422736E3,3.0793281E3,2.8046956E3,2.2191052E3,2.136609E2,1.1286127E3,1.330957E0,3.0779973E3,2.0696616E3,7.350339E2,2.0387264E3,1.8037886E2,8.8217606E1,1.254433E2,7.866462E2,3.4196652E2,3.0769304E3,1.0669096E0,7.1211316E2,1.3575485E3,7.067606E2,2.827325E1,1.9211096E3,1.17616776E2,1.424316E2,3.7947254E1,8.108138E1,7.1362257E0,9.589932E0,1.1585337E2,7.540458E2,3.260037E1,2.5420927E2,8.775725E1,2.826574E2,4.2945572E2,6.833925E2,6.7415594E2,3.5564255E2,3.5111807E2,1.2186494E0,2.7054602E1,1.738915E3,1.8219463E2,9.287632E1,2.4740454E1,1.22162384E2,2.0269215E1,3.6770004E1,1.1772527E0,6.758895E1,1.3492434E1,4.194254E0,2.941972E0,4.9385424E0,4.65139E0,8.09521E1,3.4901268E1,7.5054517E2,3.5006275E0,1.1783277E1,2.0817091E1,2.311216E0,2.5189807E2,1.5787233E1,7.197002E1,1.4930815E2,1.3334926E2,3.255056E1,3.9690515E2,5.822859E2,1.01106636E2,1.1049914E2,5.636568E2,3.397795E2,1.5863048E1,1.10938E2,2.4018005E2,1.6671678E3,7.174716E1,1.1019666E2,7.199796E1,8.369231E1,9.18402E0,2.269531E1,2.045143E0,5.54889E1,6.6673485E1,1.833594E1,1.9332749E0],"tree_param":{"num_deleted":"0","num_feature":"111","num_nodes":"93","size_leaf_vector":"0"}},{"base_weights":[-2.6335135E-1,-9.934723E-1,3.0830082E-1,-7.6003206E-1,-1.0979575E0,-6.629967E-2,6.091199E-1,-3.1375062E-1,-8.4929055E-1,-1.0985558E0,2.2541674E-2,3.404164E-1,-3.0546832E-1,7.38998E-1,4.7957573E-2,-7.6792425E-1,-1.7749093E-2,-8.5908127E-1,1.5100021E0,-9.741699E-1,-1.1056541E0,2.5386725E-2,6.0788774E-1,-9.472583E-2,-7.4432826E-1,5.376216E-1,1.0174781E0,6.529752E-1,-2.2044753E-1,-8.6993366E-1,-1.4655559E-1,2.0070256E-1,-6.3647246E-1,-9.5495677E-1,-6.0639554E-1,1.1461872E-1,5.297711E-1,-9.803339E-1,-2.673019E-2,-5.799802E-2,-3.3180678E-1,6.4618516E-1,-3.235856E-1,7.317679E-1,-4.5208642E-1,-3.8836855E-1,2.2852732E-1,-1.0857383E0,-5.215581E-1,5.875099E-1,-8.4885573E-1,1.0534325E0,3.9594153E-1,-6.890536E-1,7.500422E-1,-6.481618E-1,1.3968259E-1,-3.146693E-1,-1.958103E-1,-2.3149079E-1,2.0726222E-1,-3.5498228E-2,2.0088008E-1,-2.3859042E-1,2.7796602E-1,-2.9063556E-1,2.1418662E-1,1.2238555E-1,-2.2270223E-1,-2.9592788E-1,-5.1747825E-2,1.7576208E-2,2.996166E-1,-1.9943126E-1,2.3213746E-2,-7.350573E-2,2.4148193E-1,7.2948016E-2,-3.7676564E-1,-1.502195E-1,3.1047153E-1,1.285832E-1,-2.0668939E-1,-3.332912E-1,2.784783E-1,-2.590076E-1,-2.6473898E-2,2.0521666E-1,-2.877907E-2,2.0786862E-1,-3.9322087E-1,3.226298E-1,4.162538E-2,2.0734876E-1,-6.734719E-2,1.7841136E-1,-3.3125627E-1,2.4641939E-1,-8.665732E-2,-2.4845959E-1,2.7064818E-1,-6.7957826E-2,1.9642806E-1],"categories":[],"categories_nodes":[],"categories_segments":[],"categories_sizes":[],"default_left":[0,0,0,0,0,0,0,0,0,0,0,0,0,0,0,0,0,0,0,0,0,0,0,0,0,0,0,0,0,0,0,0,0,0,0,0,0,0,0,0,0,0,0,0,0,0,0,0,0,0,0,0,0,0,0,0,0,0,0,0,0,0,0,0,0,0,0,0,0,0,0,0,0,0,0,0,0,0,0,0,0,0,0,0,0,0,0,0,0,0,0,0,0,0,0,0,0,0,0,0,0,0,0],"id":5,"left_children":[1,3,5,7,9,11,13,15,17,19,-1,21,23,25,27,29,31,33,35,37,39,41,43,45,47,49,51,53,55,57,59,61,63,65,67,-1,-1,69,-1,-1,-1,71,73,75,77,79,81,83,85,87,89,91,93,95,97,99,101,-1,-1,-1,-1,-1,-1,-1,-1,-1,-1,-1,-1,-1,-1,-1,-1,-1,-1,-1,-1,-1,-1,-1,-1,-1,-1,-1,-1,-1,-1,-1,-1,-1,-1,-1,-1,-1,-1,-1,-1,-1,-1,-1,-1,-1,-1],"loss_changes":[3.311482E3,8.414453E1,5.015315E2,4.2774475E1,1.7702637E0,1.9299606E2,1.7986255E2,2.4409687E1,2.2082397E1,1.0449219E0,0E0,6.1896774E1,1.1546528E2,1.1185498E2,7.5651924E1,4.414707E0,1.5132296E1,2.1145752E1,5.033541E-1,6.6638184E-1,5.480957E-1,7.352717E1,5.2504547E1,8.030604E1,3.0245728E1,8.110272E1,1.8354797E1,1.9163445E1,4.981816E1,1.7005539E0,6.4523745E0,1.2466254E1,7.9876823E0,1.5654358E1,3.469381E1,0E0,0E0,5.046234E-1,0E0,0E0,0E0,2.5238209E1,2.9780493E1,2.565158E1,2.3885914E1,7.139634E1,7.425677E1,9.113373E0,3.6518173E1,7.432553E1,3.0021378E1,1.5818176E1,8.862452E0,6.0798345E0,1.016835E1,4.198616E1,3.3363216E1,0E0,0E0,0E0,0E0,0E0,0E0,0E0,0E0,0E0,0E0,0E0,0E0,0E0,0E0,0E0,0E0,0E0,0E0,0E0,0E0,0E0,0E0,0E0,0E0,0E0,0E0,0E0,0E0,0E0,0E0,0E0,0E0,0E0,0E0,0E0,0E0,0E0,0E0,0E0,0E0,0E0,0E0,0E0,0E0,0E0,0E0],"parents":[2147483647,0,0,1,1,2,2,3,3,4,4,5,5,6,6,7,7,8,8,9,9,11,11,12,12,13,13,14,14,15,15,16,16,17,17,18,18,19,19,20,20,21,21,22,22,23,23,24,24,25,25,26,26,27,27,28,28,29,29,30,30,31,31,32,32,33,33,34,34,37,37,41,41,42,42,43,43,44,44,45,45,46,46,47,47,48,48,49,49,50,50,51,51,52,52,53,53,54,54,55,55,56,56],"right_children":[2,4,6,8,10,12,14,16,18,20,-1,22,24,26,28,30,32,34,36,38,40,42,44,46,48,50,52,54,56,58,60,62,64,66,68,-1,-1,70,-1,-1,-1,72,74,76,78,80,82,84,86,88,90,92,94,96,98,100,102,-1,-1,-1,-1,-1,-1,-1,-1,-1,-1,-1,-1,-1,-1,-1,-1,-1,-1,-1,-1,-1,-1,-1,-1,-1,-1,-1,-1,-1,-1,-1,-1,-1,-1,-1,-1,-1,-1,-1,-1,-1,-1,-1,-1,-1,-1],"split_conditions":[1E0,1.08E3,3.5E1,2E0,4.4E1,2E0,4.546E3,8.9E1,5E0,2.716E3,2.2541674E-2,5E0,2.333E3,3.58E3,2E0,1.8E1,3.63E2,2.5532E4,1E1,2E0,6E0,2.67E2,6.801E3,5.84E2,4.62E2,2E0,3E0,9.4E1,3.35357E-1,2.92E2,1.79253E-1,1E0,2.4E1,2E0,2.7257E4,1.1461872E-1,5.297711E-1,1.99673E5,-2.673019E-2,-5.799802E-2,-3.3180678E-1,1.1E1,3.58E3,9E0,2E0,5E0,3E0,1E0,7E0,2E0,3E0,5E0,1.971E3,1.3414E4,5E0,2E0,6.1E1,-3.146693E-1,-1.958103E-1,-2.3149079E-1,2.0726222E-1,-3.5498228E-2,2.0088008E-1,-2.3859042E-1,2.7796602E-1,-2.9063556E-1,2.1418662E-1,1.2238555E-1,-2.2270223E-1,-2.9592788E-1,-5.1747825E-2,1.7576208E-2,2.996166E-1,-1.9943126E-1,2.3213746E-2,-7.350573E-2,2.4148193E-1,7.2948016E-2,-3.7676564E-1,-1.502195E-1,3.1047153E-1,1.285832E-1,-2.0668939E-1,-3.332912E-1,2.784783E-1,-2.590076E-1,-2.6473898E-2,2.0521666E-1,-2.877907E-2,2.0786862E-1,-3.9322087E-1,3.226298E-1,4.162538E-2,2.0734876E-1,-6.734719E-2,1.7841136E-1,-3.3125627E-1,2.4641939E-1,-8.665732E-2,-2.4845959E-1,2.7064818E-1,-6.7957826E-2,1.9642806E-1],"split_indices":[3,100,18,19,18,19,100,101,0,100,0,57,100,105,19,18,100,99,36,1,37,100,100,105,105,60,41,105,97,105,97,106,18,17,99,0,0,99,0,0,0,100,105,105,102,102,19,110,57,41,103,103,100,99,41,17,18,0,0,0,0,0,0,0,0,0,0,0,0,0,0,0,0,0,0,0,0,0,0,0,0,0,0,0,0,0,0,0,0,0,0,0,0,0,0,0,0,0,0,0,0,0,0],"split_type":[0,0,0,0,0,0,0,0,0,0,0,0,0,0,0,0,0,0,0,0,0,0,0,0,0,0,0,0,0,0,0,0,0,0,0,0,0,0,0,0,0,0,0,0,0,0,0,0,0,0,0,0,0,0,0,0,0,0,0,0,0,0,0,0,0,0,0,0,0,0,0,0,0,0,0,0,0,0,0,0,0,0,0,0,0,0,0,0,0,0,0,0,0,0,0,0,0,0,0,0,0,0,0],"sum_hessian":[7.932331E3,3.483028E3,4.4493027E3,1.0794966E3,2.4035315E3,1.9819822E3,2.4673206E3,1.8067232E2,8.988243E2,2.4023699E3,1.1617329E0,7.337637E2,1.2482185E3,2.0033407E3,4.639798E2,7.065998E1,1.1001233E2,8.95743E2,3.081325E0,1.3715915E2,2.2652107E3,3.3743048E2,3.963332E2,8.440958E2,4.041227E2,1.1643202E3,8.390205E2,1.421419E2,3.218379E2,6.0352028E1,1.0307955E1,8.180514E1,2.8207191E1,6.473444E2,2.4839856E2,1.0308114E0,2.0505135E0,1.3610364E2,1.0555143E0,1.1266673E0,2.264084E3,1.2111799E2,2.1631248E2,3.5513757E2,4.119562E1,4.422003E2,4.0189554E2,1.5804085E2,2.4608185E2,1.1244369E3,3.988328E1,7.924824E2,4.6538074E1,9.176112E0,1.3296579E2,1.4674911E2,1.7508876E2,3.0991598E1,2.9360428E1,5.947296E0,4.360658E0,4.9127365E1,3.2677776E1,2.6051147E1,2.1560428E0,6.4244073E2,4.9036684E0,2.912006E1,2.1927849E2,1.3486548E2,1.2381551E0,4.585479E1,7.52632E1,1.16512665E2,9.979982E1,2.458595E1,3.3055164E2,2.2463387E1,1.8732237E1,4.1044507E2,3.1755207E1,3.3038028E2,7.151528E1,1.5652817E2,1.5126767E0,1.3701254E2,1.0906931E2,9.8525476E2,1.3918217E2,9.078661E0,3.0804623E1,7.7369745E2,1.8784939E1,3.145622E1,1.5081853E1,2.1365361E0,7.0395756E0,1.24616035E2,8.349761E0,1.3189781E2,1.4851315E1,1.02659996E2,7.242876E1],"tree_param":{"num_deleted":"0","num_feature":"111","num_nodes":"103","size_leaf_vector":"0"}},{"base_weights":[-2.2946624E-1,-9.304303E-1,2.5084797E-1,-6.697897E-1,-1.0643642E0,6.6431984E-3,6.0729975E-1,-7.446257E-1,-2.3662664E-2,-9.2343646E-1,-1.0722958E0,1.4713396E-1,-4.209735E-1,6.713663E-1,-4.135831E-1,-2.6605362E-1,-8.166799E-1,-5.2614284E-1,3.5519755E-1,-9.3100756E-1,-4.630536E-2,-4.9851663E-2,-3.2183313E-1,-1.0857353E-1,3.9002606E-1,-4.7340396E-1,1.037963E0,7.529398E-1,-3.9659526E-2,3.3472404E-1,-1.2556905E0,-5.262215E-1,8.803687E-1,-8.873706E-1,-4.7059882E-1,-6.170229E-1,3.4576964E-1,1.3225271E-1,2.2604952E0,-9.369792E-1,-5.380048E-2,-2.384452E-1,7.7392906E-1,6.4713895E-2,6.9425654E-1,-6.480032E-1,-9.04635E-2,-9.0036094E-2,3.3847234E-1,8.854896E-1,1.6768648E-1,-1.1256382E0,7.938874E-1,6.050747E-1,-1.5609509E0,-1.6242163E0,7.133844E-1,-2.3849869E-1,-5.097448E-2,3.8235483E-1,-2.2264536E-1,-2.7366453E-1,-9.998794E-2,-6.5147705E-2,-2.2508457E-1,-2.2074865E-1,6.92767E-2,-8.975338E-3,4.070237E-1,1.9205344E-1,9.8932874E-1,-8.1803694E-2,-2.8335828E-1,-4.7346506E-2,-4.5287699E-1,3.3255488E-1,3.399002E-2,5.1810116E-2,-2.8619668E-1,2.123761E-1,-4.5427993E-1,-2.8322542E-1,-9.482171E-2,4.8241157E-2,-2.3869449E-1,2.881318E-1,1.7138772E-2,1.3805605E-1,-1.3093862E-1,3.087421E-1,-4.120246E-1,2.9579964E-1,1.55779775E-2,2.3473711E-1,-2.839509E-1,-7.8644377E-1,1.1172112E-1,-7.501346E-1,-1.8715972E-1,3.1523287E-1,-1.56394E-1],"categories":[],"categories_nodes":[],"categories_segments":[],"categories_sizes":[],"default_left":[0,0,0,0,0,0,0,0,0,0,0,0,0,0,0,0,0,0,0,0,0,0,0,0,0,0,0,0,0,0,0,0,0,0,0,0,0,0,0,0,0,0,0,0,0,0,0,0,0,0,0,0,0,0,0,0,0,0,0,0,0,0,0,0,0,0,0,0,0,0,0,0,0,0,0,0,0,0,0,0,0,0,0,0,0,0,0,0,0,0,0,0,0,0,0,0,0,0,0,0,0],"id":6,"left_children":[1,3,5,7,9,11,13,15,17,19,21,23,25,27,29,31,33,35,37,39,-1,-1,-1,41,43,45,47,49,51,53,55,57,59,61,63,65,-1,67,69,71,-1,73,75,77,79,81,83,-1,-1,85,87,89,91,93,95,97,99,-1,-1,-1,-1,-1,-1,-1,-1,-1,-1,-1,-1,-1,-1,-1,-1,-1,-1,-1,-1,-1,-1,-1,-1,-1,-1,-1,-1,-1,-1,-1,-1,-1,-1,-1,-1,-1,-1,-1,-1,-1,-1,-1,-1],"loss_changes":[2.2660955E3,9.481958E1,3.4768933E2,4.5029663E1,1.0285645E0,1.4252544E2,1.06489685E2,2.8572266E1,1.879274E1,4.5856476E-1,5.6469727E-1,1.1095025E2,4.5369057E1,8.867932E1,6.1237892E1,3.3491467E1,1.7323029E1,7.1822453E0,2.3624027E1,2.9083252E-1,0E0,0E0,0E0,9.997473E1,9.06125E1,3.785337E1,2.8350525E0,1.06219604E2,1.4414645E2,2.7538816E1,3.4263405E1,8.568064E0,1.4283623E1,7.969574E0,8.706337E0,4.2891455E0,0E0,1.0263602E1,7.7000732E0,2.4980927E-1,0E0,7.7623886E1,2.4615135E1,4.8982243E1,1.5352844E1,3.7960846E1,3.1797493E1,0E0,0E0,6.933978E1,4.5162598E1,3.8324577E1,1.2794231E1,1.3438118E1,1.482893E1,3.2391495E1,3.8333044E0,0E0,0E0,0E0,0E0,0E0,0E0,0E0,0E0,0E0,0E0,0E0,0E0,0E0,0E0,0E0,0E0,0E0,0E0,0E0,0E0,0E0,0E0,0E0,0E0,0E0,0E0,0E0,0E0,0E0,0E0,0E0,0E0,0E0,0E0,0E0,0E0,0E0,0E0,0E0,0E0,0E0,0E0,0E0,0E0],"parents":[2147483647,0,0,1,1,2,2,3,3,4,4,5,5,6,6,7,7,8,8,9,9,10,10,11,11,12,12,13,13,14,14,15,15,16,16,17,17,18,18,19,19,23,23,24,24,25,25,26,26,27,27,28,28,29,29,30,30,31,31,32,32,33,33,34,34,35,35,37,37,38,38,39,39,41,41,42,42,43,43,44,44,45,45,46,46,49,49,50,50,51,51,52,52,53,53,54,54,55,55,56,56],"right_children":[2,4,6,8,10,12,14,16,18,20,22,24,26,28,30,32,34,36,38,40,-1,-1,-1,42,44,46,48,50,52,54,56,58,60,62,64,66,-1,68,70,72,-1,74,76,78,80,82,84,-1,-1,86,88,90,92,94,96,98,100,-1,-1,-1,-1,-1,-1,-1,-1,-1,-1,-1,-1,-1,-1,-1,-1,-1,-1,-1,-1,-1,-1,-1,-1,-1,-1,-1,-1,-1,-1,-1,-1,-1,-1,-1,-1,-1,-1,-1,-1,-1,-1,-1,-1],"split_conditions":[1E0,1.488E3,3E0,1E0,2.975E3,3.515E3,5E0,0E0,2.93E2,2E0,6E0,5.84E2,1E0,2.8E1,1E0,2.4E1,8.9E1,4.6475E4,2E0,3.6E1,-4.630536E-2,-4.9851663E-2,-3.2183313E-1,4.6475E4,2.5E1,4.447E3,7E0,4.936E3,4.8E1,3E0,2E1,1E0,3E0,3.3E1,2E0,2.39E2,3.4576964E-1,3.6E1,2.1E1,9E0,-5.380048E-2,4.2927E4,6.6E1,3E0,6E0,1.7054E4,6.757E3,-9.0036094E-2,3.3847234E-1,3E0,1E0,5.3831E4,2E0,7.274E3,3.395E3,1.1E1,5.316E3,-2.3849869E-1,-5.097448E-2,3.8235483E-1,-2.2264536E-1,-2.7366453E-1,-9.998794E-2,-6.5147705E-2,-2.2508457E-1,-2.2074865E-1,6.92767E-2,-8.975338E-3,4.070237E-1,1.9205344E-1,9.8932874E-1,-8.1803694E-2,-2.8335828E-1,-4.7346506E-2,-4.5287699E-1,3.3255488E-1,3.399002E-2,5.1810116E-2,-2.8619668E-1,2.123761E-1,-4.5427993E-1,-2.8322542E-1,-9.482171E-2,4.8241157E-2,-2.3869449E-1,2.881318E-1,1.7138772E-2,1.3805605E-1,-1.3093862E-1,3.087421E-1,-4.120246E-1,2.9579964E-1,1.55779775E-2,2.3473711E-1,-2.839509E-1,-7.8644377E-1,1.1172112E-1,-7.501346E-1,-1.8715972E-1,3.1523287E-1,-1.56394E-1],"split_indices":[3,100,3,1,100,100,103,98,105,1,37,105,110,37,106,18,101,99,102,18,0,0,0,99,18,105,57,100,18,19,37,106,0,18,0,101,0,18,18,37,0,99,105,19,74,99,100,0,0,41,107,99,41,100,105,100,100,0,0,0,0,0,0,0,0,0,0,0,0,0,0,0,0,0,0,0,0,0,0,0,0,0,0,0,0,0,0,0,0,0,0,0,0,0,0,0,0,0,0,0,0],"split_type":[0,0,0,0,0,0,0,0,0,0,0,0,0,0,0,0,0,0,0,0,0,0,0,0,0,0,0,0,0,0,0,0,0,0,0,0,0,0,0,0,0,0,0,0,0,0,0,0,0,0,0,0,0,0,0,0,0,0,0,0,0,0,0,0,0,0,0,0,0,0,0,0,0,0,0,0,0,0,0,0,0,0,0,0,0,0,0,0,0,0,0,0,0,0,0,0,0,0,0,0,0],"sum_hessian":[6.728957E3,2.7356497E3,3.9933071E3,9.30623E2,1.8050267E3,2.3703804E3,1.6229268E3,8.3388763E2,9.673537E1,1.02432236E2,1.7025946E3,1.7846882E3,5.856921E2,1.5274147E3,9.5512115E1,1.0973542E2,7.2415216E2,4.1416348E1,5.531902E1,1.0122521E2,1.207025E0,1.0877535E0,1.7015068E3,8.696778E2,9.1501044E2,5.6602606E2,1.966602E1,1.3701617E3,1.5725296E2,5.0891663E1,4.4620457E1,8.9879295E1,1.9856125E1,6.000264E2,1.2412576E2,3.9889305E1,1.5270417E0,5.048144E1,4.837578E0,1.00182785E2,1.0424247E0,7.58748E2,1.1092977E2,4.4277066E2,4.7223978E2,3.8829382E2,1.7773222E2,1.0960573E0,1.8569963E1,1.116729E3,2.5343274E2,6.8134346E1,8.911861E1,4.5135498E1,5.756163E0,3.773351E1,6.886948E0,5.0530907E1,3.9348385E1,1.6147911E1,3.7082145E0,5.7365765E2,2.6368788E1,6.6049904E1,5.8075855E1,3.5103203E1,4.7861037E0,4.5439106E1,5.0423384E0,2.5193202E0,2.3182578E0,1.5426693E0,9.8640114E1,7.145511E2,4.41969E1,7.3185646E1,3.774413E1,4.010846E2,4.168606E1,4.7001135E2,2.2284288E0,2.0425482E2,1.8403902E2,1.3160977E2,4.612246E1,1.0239252E3,9.2803795E1,1.7091972E2,8.2513016E1,6.7015133E0,6.143283E1,7.052825E1,1.8590359E1,4.094968E1,4.185821E0,3.4873042E0,2.268859E0,1.9315237E1,1.8418272E1,5.5259066E0,1.3610412E0],"tree_param":{"num_deleted":"0","num_feature":"111","num_nodes":"101","size_leaf_vector":"0"}},{"base_weights":[-1.9674732E-1,-8.685616E-1,2.0275013E-1,-5.6498474E-1,-1.0302868E0,1.9225134E-2,6.171553E-1,-6.8267536E-1,-1.3047448E-1,-8.266846E-1,-1.0455369E0,3.7420833E-1,-1.4879772E-1,7.885867E-1,-6.0700458E-3,-8.0352193E-1,-3.5234323E-1,1.6174509E-1,-6.23616E-1,-8.478392E-1,1.5337414E-1,-4.286156E-2,-1.0461572E0,-6.2013255E-3,5.739971E-1,-2.3202153E-2,-5.176187E-1,8.2482153E-1,-1.2273633E0,-2.0336698E-1,9.572584E-1,-8.461678E-1,6.0687125E-2,-7.792046E-1,1.1686321E-1,-2.1668637E-1,5.617465E-1,-6.7367744E-1,3.0298305E-1,-3.916138E-1,-8.823841E-1,2.5045994E-1,-1.8176611E-1,-3.140511E-1,-1.16574086E-1,4.3312216E-1,-3.3675203E-1,7.6153696E-1,1.2243095E-1,-3.9047313E-1,9.614327E-2,-9.337705E-1,-2.9263046E-1,8.5002935E-1,-1.2892771E0,-1.4811329E0,2.3320203E-1,-3.206853E-1,3.6611804E-1,1.0440464E0,-4.2912152E-1,-2.6270422E-1,6.554799E-2,3.4387714E-1,-2.9460663E-1,-1.8359943E-1,-3.056202E-1,-5.2873485E-2,2.7042133E-1,4.1823447E-2,-2.2653943E-1,3.0235916E-1,3.6166098E-2,-2.4387321E-1,-9.82629E-2,-1.9654286E-1,1.5419872E-1,-2.671722E-1,-4.201311E-2,1.5357265E-1,-2.7308998E-1,-4.7535006E-2,-2.2877613E-1,4.789446E-2,2.535156E-1,1.038513E-1,-2.122925E-1,-3.4062736E-2,-1.9988538E-1,-9.588402E-3,2.1700932E-1,-2.3016591E-1,-3.656138E-1,-2.0017037E-1,-2.7450658E-2,2.6159987E-1,-3.4047458E-1,-4.146914E-1,-6.199907E-2,-2.735559E-1,-6.628057E-1,-2.6468902E-3,-2.4968924E-1,-6.704096E-2,3.289894E-1,1.3804427E-1,-3.4810752E-1],"categories":[],"categories_nodes":[],"categories_segments":[],"categories_sizes":[],"default_left":[0,0,0,0,0,0,0,0,0,0,0,0,0,0,0,0,0,0,0,0,0,0,0,0,0,0,0,0,0,0,0,0,0,0,0,0,0,0,0,0,0,0,0,0,0,0,0,0,0,0,0,0,0,0,0,0,0,0,0,0,0,0,0,0,0,0,0,0,0,0,0,0,0,0,0,0,0,0,0,0,0,0,0,0,0,0,0,0,0,0,0,0,0,0,0,0,0,0,0,0,0,0,0,0,0,0,0],"id":7,"left_children":[1,3,5,7,9,11,13,15,17,19,21,23,25,27,29,31,33,35,37,39,41,-1,43,45,47,49,51,53,55,57,59,61,63,65,67,69,71,73,-1,75,77,-1,-1,-1,-1,79,81,83,85,87,89,91,93,95,97,99,-1,101,-1,103,105,-1,-1,-1,-1,-1,-1,-1,-1,-1,-1,-1,-1,-1,-1,-1,-1,-1,-1,-1,-1,-1,-1,-1,-1,-1,-1,-1,-1,-1,-1,-1,-1,-1,-1,-1,-1,-1,-1,-1,-1,-1,-1,-1,-1,-1,-1],"loss_changes":[1.5535106E3,1.0538818E2,2.7607928E2,3.838803E1,3.5042725E0,1.5018347E2,1.1904669E2,2.3342072E1,2.3388279E1,2.261795E0,5.814209E-1,6.1481888E1,7.915748E1,6.484454E1,4.606789E1,1.5991943E1,3.2196518E1,1.5601922E1,5.6144314E0,1.2431107E0,2.0681205E0,0E0,1.7614746E-1,4.0739326E1,4.482245E1,5.596684E1,4.0372383E1,4.6874207E1,9.205158E0,3.399094E1,5.4057846E0,1.3144714E1,2.5205223E1,2.7434921E0,1.7918556E1,1.0319426E1,9.718531E0,2.58391E0,0E0,2.4591713E0,4.401245E-1,0E0,0E0,0E0,0E0,1.3215605E1,1.2033329E1,1.8692505E1,2.937064E1,2.3842278E1,7.746822E1,6.272888E0,2.127852E1,3.8035828E1,7.737465E-1,3.9536114E0,0E0,2.977053E1,0E0,2.8490448E0,2.5732765E0,0E0,0E0,0E0,0E0,0E0,0E0,0E0,0E0,0E0,0E0,0E0,0E0,0E0,0E0,0E0,0E0,0E0,0E0,0E0,0E0,0E0,0E0,0E0,0E0,0E0,0E0,0E0,0E0,0E0,0E0,0E0,0E0,0E0,0E0,0E0,0E0,0E0,0E0,0E0,0E0,0E0,0E0,0E0,0E0,0E0,0E0],"parents":[2147483647,0,0,1,1,2,2,3,3,4,4,5,5,6,6,7,7,8,8,9,9,10,10,11,11,12,12,13,13,14,14,15,15,16,16,17,17,18,18,19,19,20,20,22,22,23,23,24,24,25,25,26,26,27,27,28,28,29,29,30,30,31,31,32,32,33,33,34,34,35,35,36,36,37,37,39,39,40,40,45,45,46,46,47,47,48,48,49,49,50,50,51,51,52,52,53,53,54,54,55,55,57,57,59,59,60,60],"right_children":[2,4,6,8,10,12,14,16,18,20,22,24,26,28,30,32,34,36,38,40,42,-1,44,46,48,50,52,54,56,58,60,62,64,66,68,70,72,74,-1,76,78,-1,-1,-1,-1,80,82,84,86,88,90,92,94,96,98,100,-1,102,-1,104,106,-1,-1,-1,-1,-1,-1,-1,-1,-1,-1,-1,-1,-1,-1,-1,-1,-1,-1,-1,-1,-1,-1,-1,-1,-1,-1,-1,-1,-1,-1,-1,-1,-1,-1,-1,-1,-1,-1,-1,-1,-1,-1,-1,-1,-1,-1],"split_conditions":[1E0,8.9E2,5E1,1.1E1,2.716E3,2E0,2E0,2.6094E4,3.18E2,3.3E1,6E0,2E0,2.931E3,3E0,1E0,5E0,2E1,5.99E2,3.2E1,3.6E1,6.15E2,-4.286156E-2,3E0,4.78E2,4.108E3,2.2E1,3.46E2,8E0,1E1,2E0,3E0,3.8E1,1E0,2E0,4.6945E4,2.98E2,4.08838E-1,1E0,3.0298305E-1,1.0799E4,1.99673E5,2.5045994E-1,-1.8176611E-1,-3.140511E-1,-1.16574086E-1,3.68E2,3.515E3,0E0,2E0,4.77247E-1,5E0,2E0,7E0,1E0,4.6E1,4E0,2.3320203E-1,3.02E3,3.6611804E-1,6.3E1,3.4E1,-2.6270422E-1,6.554799E-2,3.4387714E-1,-2.9460663E-1,-1.8359943E-1,-3.056202E-1,-5.2873485E-2,2.7042133E-1,4.1823447E-2,-2.2653943E-1,3.0235916E-1,3.6166098E-2,-2.4387321E-1,-9.82629E-2,-1.9654286E-1,1.5419872E-1,-2.671722E-1,-4.201311E-2,1.5357265E-1,-2.7308998E-1,-4.7535006E-2,-2.2877613E-1,4.789446E-2,2.535156E-1,1.038513E-1,-2.122925E-1,-3.4062736E-2,-1.9988538E-1,-9.588402E-3,2.1700932E-1,-2.3016591E-1,-3.656138E-1,-2.0017037E-1,-2.7450658E-2,2.6159987E-1,-3.4047458E-1,-4.146914E-1,-6.199907E-2,-2.735559E-1,-6.628057E-1,-2.6468902E-3,-2.4968924E-1,-6.704096E-2,3.289894E-1,1.3804427E-1,-3.4810752E-1],"split_indices":[3,100,18,100,100,19,41,99,100,18,37,57,100,60,2,102,18,105,18,101,105,0,1,100,100,18,105,74,2,17,19,18,104,104,99,105,97,106,0,105,99,0,0,0,0,101,100,107,102,97,104,102,57,12,16,103,0,100,0,18,75,0,0,0,0,0,0,0,0,0,0,0,0,0,0,0,0,0,0,0,0,0,0,0,0,0,0,0,0,0,0,0,0,0,0,0,0,0,0,0,0,0,0,0,0,0,0],"split_type":[0,0,0,0,0,0,0,0,0,0,0,0,0,0,0,0,0,0,0,0,0,0,0,0,0,0,0,0,0,0,0,0,0,0,0,0,0,0,0,0,0,0,0,0,0,0,0,0,0,0,0,0,0,0,0,0,0,0,0,0,0,0,0,0,0,0,0,0,0,0,0,0,0,0,0,0,0,0,0,0,0,0,0,0,0,0,0,0,0,0,0,0,0,0,0,0,0,0,0,0,0,0,0,0,0,0,0],"sum_hessian":[5.786643E3,2.1574302E3,3.6292131E3,7.514203E2,1.4060098E3,2.51601E3,1.1132031E3,5.908207E2,1.6059964E2,1.01821106E2,1.3041886E3,8.0790845E2,1.7081017E3,8.7284357E2,2.4035953E2,4.315227E2,1.5929796E2,1.012652E2,5.933444E1,9.980179E1,2.0193145E0,1.0544986E0,1.3031342E3,2.785334E2,5.293751E2,1.2749893E3,4.3311246E2,8.5801245E2,1.4831131E1,2.0015514E2,4.0204388E1,4.1124976E2,2.0272953E1,8.306696E1,7.6231E1,5.2271095E1,4.8994106E1,5.8140293E1,1.1941458E0,7.8933215E0,9.190847E1,1.0116802E0,1.0076343E0,1.3011971E3,1.9369994E0,1.1945696E2,1.5907642E2,3.7354977E2,1.5582532E2,3.1214114E2,9.628481E2,1.5088191E2,2.8223053E2,8.484932E2,9.51922E0,1.3396481E1,1.4346504E0,1.8563362E2,1.452151E1,3.8068226E1,2.1361623E0,4.0032993E2,1.0919827E1,9.883687E0,1.0389265E1,5.101223E1,3.205473E1,5.6061516E1,2.0169485E1,3.1909197E1,2.0361897E1,2.3722454E1,2.5271654E1,4.05004E1,1.7639894E1,6.3283634E0,1.5649581E0,9.070806E1,1.200407E0,1.1342402E2,6.032942E0,1.13094536E2,4.5981884E1,4.587107E1,3.276787E2,1.23200485E2,3.2624836E1,1.5645895E2,1.5568219E2,8.003354E2,1.625127E2,9.7553635E1,5.3328285E1,9.7785774E1,1.8444476E2,8.397591E2,8.734138E0,8.511055E0,1.008165E0,8.782778E0,4.6137023E0,1.1596334E2,6.967028E1,1.3869592E0,3.6681267E1,1.1312083E0,1.0049541E0],"tree_param":{"num_deleted":"0","num_feature":"111","num_nodes":"107","size_leaf_vector":"0"}},{"base_weights":[-1.6754456E-1,-8.060316E-1,1.6176593E-1,-4.9093565E-1,-1.0132278E0,3.2790676E-2,6.0386163E-1,-5.726458E-1,9.8372795E-2,-7.9346067E-1,-1.0269382E0,-1.05896704E-1,3.5341918E-1,7.709744E-1,-1.7815031E-1,-1.06487334E-1,-6.569698E-1,-3.276043E-1,3.556301E-1,-8.163288E-1,-9.764544E-2,-3.686015E-2,-3.0833045E-1,2.1311268E-1,-2.2788736E-1,-1.3063616E-1,5.2211845E-1,8.745423E-1,1.3738748E-1,-3.4825027E-1,1.0668393E0,-5.988105E-1,3.262958E-1,-7.428576E-1,-3.204489E-1,-4.209507E-1,3.131715E-1,5.696911E-1,1.8442105E-1,-1.7982788E-2,-8.281724E-1,1.4219838E-1,-1.715784E-1,3.52748E-1,-1.9401473E-1,-2.546138E-1,1.7664983E0,-2.9691994E-1,4.973926E-1,6.8118256E-1,-2.1818087E-2,9.00847E-1,-9.8300284E-1,6.1751646E-1,-3.9030555E-1,-5.4766502E-2,-8.059277E-1,9.986624E-3,3.481861E-1,-6.7643255E-2,-2.2659549E-1,2.6114312E-1,-1.5254751E-1,-2.6450485E-1,-1.8186033E-1,-1.1154651E-1,3.1284407E-1,-1.8786777E-2,-2.1815678E-1,1.6070876E-1,-4.8372116E-2,-2.9264414E-1,-2.0789334E-1,5.754108E-2,1.9696303E-1,1.5834992E-1,-1.8465275E-1,2.3159333E-1,-9.067361E-2,8.181583E-1,4.285736E-1,5.1307008E-2,-1.874699E-1,2.1251288E-1,-1.0706181E-1,2.3480706E-1,7.0923656E-2,5.7588037E-2,-2.192955E-1,2.8782582E-1,9.128704E-2,-4.9490747E-1,2.2363143E-1,2.1790081E-1,-3.1505668E-1,-2.0702712E-1,2.509529E-1,-1.2263689E-1,2.972008E-1,2.0707533E-1,-3.0463892E-1],"categories":[],"categories_nodes":[],"categories_segments":[],"categories_sizes":[],"default_left":[0,0,0,0,0,0,0,0,0,0,0,0,0,0,0,0,0,0,0,0,0,0,0,0,0,0,0,0,0,0,0,0,0,0,0,0,0,0,0,0,0,0,0,0,0,0,0,0,0,0,0,0,0,0,0,0,0,0,0,0,0,0,0,0,0,0,0,0,0,0,0,0,0,0,0,0,0,0,0,0,0,0,0,0,0,0,0,0,0,0,0,0,0,0,0,0,0,0,0,0,0],"id":8,"left_children":[1,3,5,7,9,11,13,15,17,19,21,23,25,27,29,31,33,35,37,39,41,-1,-1,43,45,47,49,51,53,55,57,59,61,63,65,67,-1,-1,69,-1,71,-1,-1,73,75,77,79,81,83,85,87,89,91,93,95,97,99,-1,-1,-1,-1,-1,-1,-1,-1,-1,-1,-1,-1,-1,-1,-1,-1,-1,-1,-1,-1,-1,-1,-1,-1,-1,-1,-1,-1,-1,-1,-1,-1,-1,-1,-1,-1,-1,-1,-1,-1,-1,-1,-1,-1],"loss_changes":[1.0609716E3,1.1159619E2,1.8982193E2,3.294742E1,2.3032227E0,1.14697556E2,9.839697E1,2.3516281E1,9.324991E0,9.5726395E-1,6.0217285E-1,7.0126236E1,6.3665047E1,4.0543396E1,2.857906E1,2.0033714E1,1.444249E1,4.556757E0,1.361977E1,5.1436615E-1,1.1412516E0,0E0,0E0,2.8415857E1,6.990833E1,2.12506E1,5.000029E1,2.6901672E1,2.260028E1,1.57977E1,1.5371132E0,2.3953476E0,2.324601E1,7.1278687E0,7.7437553E0,3.3368392E0,0E0,0E0,5.999384E0,0E0,5.5698395E-1,0E0,0E0,1.8045586E1,3.926672E1,6.3152298E1,1.7389259E0,2.4724155E1,7.944703E0,1.9997696E1,2.0104828E1,1.8070831E1,1.0347892E1,9.218824E0,1.626516E1,2.7398127E1,1.5124266E1,0E0,0E0,0E0,0E0,0E0,0E0,0E0,0E0,0E0,0E0,0E0,0E0,0E0,0E0,0E0,0E0,0E0,0E0,0E0,0E0,0E0,0E0,0E0,0E0,0E0,0E0,0E0,0E0,0E0,0E0,0E0,0E0,0E0,0E0,0E0,0E0,0E0,0E0,0E0,0E0,0E0,0E0,0E0,0E0],"parents":[2147483647,0,0,1,1,2,2,3,3,4,4,5,5,6,6,7,7,8,8,9,9,10,10,11,11,12,12,13,13,14,14,15,15,16,16,17,17,18,18,19,19,20,20,23,23,24,24,25,25,26,26,27,27,28,28,29,29,30,30,31,31,32,32,33,33,34,34,35,35,38,38,40,40,43,43,44,44,45,45,46,46,47,47,48,48,49,49,50,50,51,51,52,52,53,53,54,54,55,55,56,56],"right_children":[2,4,6,8,10,12,14,16,18,20,22,24,26,28,30,32,34,36,38,40,42,-1,-1,44,46,48,50,52,54,56,58,60,62,64,66,68,-1,-1,70,-1,72,-1,-1,74,76,78,80,82,84,86,88,90,92,94,96,98,100,-1,-1,-1,-1,-1,-1,-1,-1,-1,-1,-1,-1,-1,-1,-1,-1,-1,-1,-1,-1,-1,-1,-1,-1,-1,-1,-1,-1,-1,-1,-1,-1,-1,-1,-1,-1,-1,-1,-1,-1,-1,-1,-1,-1],"split_conditions":[1E0,1.488E3,5.9E1,1E0,2.975E3,3.641E3,4E0,0E0,2.93E2,2.931E3,6E0,2E0,2.1E1,2.2E1,1.46E2,1E0,8.9E1,2.195277E0,2.96E2,9E0,5.98E2,-3.686015E-2,-3.0833045E-1,2E0,1E0,2E0,4.743E3,1E0,3E0,8E0,1E0,2.2878E4,1E0,2.93E2,2.8E1,1.84987E-1,3.131715E-1,5.696911E-1,3.67047E-1,-1.7982788E-2,4.19932E-1,1.4219838E-1,-1.715784E-1,3E1,8.28E2,2E0,2E0,5.13112E-1,5.287E3,1.4398E4,1.44E4,6.757E3,1E0,5.9504E4,1E0,9.2E1,6.4E1,9.986624E-3,3.481861E-1,-6.7643255E-2,-2.2659549E-1,2.6114312E-1,-1.5254751E-1,-2.6450485E-1,-1.8186033E-1,-1.1154651E-1,3.1284407E-1,-1.8786777E-2,-2.1815678E-1,1.6070876E-1,-4.8372116E-2,-2.9264414E-1,-2.0789334E-1,5.754108E-2,1.9696303E-1,1.5834992E-1,-1.8465275E-1,2.3159333E-1,-9.067361E-2,8.181583E-1,4.285736E-1,5.1307008E-2,-1.874699E-1,2.1251288E-1,-1.0706181E-1,2.3480706E-1,7.0923656E-2,5.7588037E-2,-2.192955E-1,2.8782582E-1,9.128704E-2,-4.9490747E-1,2.2363143E-1,2.1790081E-1,-3.1505668E-1,-2.0702712E-1,2.509529E-1,-1.2263689E-1,2.972008E-1,2.0707533E-1,-3.0463892E-1],"split_indices":[3,100,18,1,100,105,41,98,105,100,37,19,18,75,18,106,101,97,105,37,105,0,0,102,38,57,100,88,103,41,75,99,107,105,18,97,0,0,97,0,97,0,0,18,100,103,57,97,100,105,105,100,40,99,5,18,57,0,0,0,0,0,0,0,0,0,0,0,0,0,0,0,0,0,0,0,0,0,0,0,0,0,0,0,0,0,0,0,0,0,0,0,0,0,0,0,0,0,0,0,0],"split_type":[0,0,0,0,0,0,0,0,0,0,0,0,0,0,0,0,0,0,0,0,0,0,0,0,0,0,0,0,0,0,0,0,0,0,0,0,0,0,0,0,0,0,0,0,0,0,0,0,0,0,0,0,0,0,0,0,0,0,0,0,0,0,0,0,0,0,0,0,0,0,0,0,0,0,0,0,0,0,0,0,0,0,0,0,0,0,0,0,0,0,0,0,0,0,0,0,0,0,0,0,0],"sum_hessian":[5.0443667E3,1.7159438E3,3.3284229E3,6.820612E2,1.0338826E3,2.5775369E3,7.508862E2,5.9903125E2,8.302997E1,6.416902E1,9.6971356E2,1.7997343E3,7.7780255E2,6.18689E2,1.3219722E2,9.210746E1,5.069238E2,3.1160198E1,5.186977E1,6.1959507E1,2.2095163E0,1.0261054E0,9.6868744E2,4.9764087E2,1.3020934E3,2.0107523E2,5.7672736E2,5.314383E2,8.72507E1,1.1694022E2,1.5256987E1,4.2910236E1,4.9197227E1,4.0288977E2,1.0403404E2,2.9823456E1,1.336742E0,4.171833E0,4.7697937E1,1.0486552E0,6.091085E1,1.0021994E0,1.2073169E0,3.7065002E2,1.2699086E2,1.2857357E3,1.63576E1,1.5939838E2,4.167684E1,4.4603915E2,1.3068817E2,5.245255E2,6.9127803E0,4.559512E1,4.1655582E1,7.193309E1,4.5007137E1,1.3819236E0,1.3875063E1,1.3396049E1,2.9514187E1,2.9756685E1,1.944054E1,1.9715456E2,2.0573521E2,1.0095687E2,3.0771728E0,1.4297967E1,1.5525489E1,2.3384209E1,2.4313728E1,2.6175097E1,3.4735756E1,2.4335631E2,1.2729372E2,4.6722317E1,8.026854E1,5.6335808E1,1.2293999E3,2.4166358E0,1.3940963E1,6.588123E1,9.351714E1,3.3559265E1,8.11758E0,3.6253903E2,8.350012E1,1.0097776E2,2.9710407E1,4.7707605E2,4.7449474E1,5.0214744E0,1.8913059E0,4.3332123E1,2.2629974E0,3.3827084E1,7.8284993E0,5.4190994E1,1.7742094E1,5.246992E0,3.9760147E1],"tree_param":{"num_deleted":"0","num_feature":"111","num_nodes":"101","size_leaf_vector":"0"}},{"base_weights":[-1.3684243E-1,-7.378482E-1,1.2994191E-1,-4.2303833E-1,-1.0066531E0,3.4913138E-2,5.755375E-1,-8.218102E-2,-5.349874E-1,-4.7480967E-2,-1.0078534E0,2.965314E-1,-7.040195E-2,7.8020227E-1,6.1335567E-2,-2.8654343E-1,3.8939074E-1,-6.191693E-1,-1.1046897E-1,-3.0272266E-1,-6.100272E-2,1.12076305E-1,6.256408E-1,-1.4168558E-1,5.0204855E-1,8.2376575E-1,-2.9519618E-1,6.323523E-1,-4.4136128E-1,-6.8437743E-1,-8.434157E-2,6.248807E-1,-2.4443153E-1,-6.7311823E-1,5.6926094E-2,2.9720032E-1,-7.4515325E-1,5.3005043E-2,9.972215E-1,7.929438E-1,2.333895E-1,-6.572258E-1,-5.2579217E-2,-5.3589165E-2,7.8092664E-1,8.4068036E-1,-4.0991667E-1,-1.1613367E0,6.1610657E-1,8.027473E-1,4.275799E-2,-1.4982073E0,1.178421E-1,-2.338046E-1,-4.7036655E-2,3.1878552E-1,-6.430921E-2,2.3826936E-1,-1.3059314E-1,-1.7707899E-1,2.9829317E-1,-2.4348965E-1,-1.423687E-1,3.176291E-1,-1.3697597E-1,-9.5874056E-2,3.0480364E-1,-2.7168018E-1,5.2422248E-2,-8.371674E-2,7.6531604E-2,1.6512911E-1,3.3031946E-1,2.747987E-1,-3.1527523E-2,1.238307E-1,-2.6362482E-1,-8.835736E-2,-3.2930756E-1,-2.2321837E-1,-8.5113355E-4,9.7306505E-2,-2.201723E-1,2.5397056E-1,-1.4678831E-1,2.5895953E-1,-1.3714491E-1,-1.0146302E-1,-3.8080236E-1,-1.999997E-1,2.737455E-1,2.5773254E-1,-3.4633982E-1,1.6992405E-1,-2.4531569E-1,-8.054433E-1,-2.178342E-1,1.4306946E-1,-1.4626586E-1],"categories":[],"categories_nodes":[],"categories_segments":[],"categories_sizes":[],"default_left":[0,0,0,0,0,0,0,0,0,0,0,0,0,0,0,0,0,0,0,0,0,0,0,0,0,0,0,0,0,0,0,0,0,0,0,0,0,0,0,0,0,0,0,0,0,0,0,0,0,0,0,0,0,0,0,0,0,0,0,0,0,0,0,0,0,0,0,0,0,0,0,0,0,0,0,0,0,0,0,0,0,0,0,0,0,0,0,0,0,0,0,0,0,0,0,0,0,0,0],"id":9,"left_children":[1,3,5,7,9,11,13,15,17,-1,19,21,23,25,27,29,31,33,35,-1,-1,37,39,41,43,45,47,49,51,53,55,57,59,61,63,65,67,69,71,73,75,77,79,81,83,85,-1,87,89,91,93,95,97,-1,-1,-1,-1,-1,-1,-1,-1,-1,-1,-1,-1,-1,-1,-1,-1,-1,-1,-1,-1,-1,-1,-1,-1,-1,-1,-1,-1,-1,-1,-1,-1,-1,-1,-1,-1,-1,-1,-1,-1,-1,-1,-1,-1,-1,-1],"loss_changes":[7.208227E2,1.1652673E2,1.3183902E2,2.4311897E1,5.98938E-1,7.076628E1,5.7549072E1,1.5433266E1,1.7095718E1,0E0,5.258179E-1,4.4679268E1,7.480886E1,1.8579193E1,4.5317894E1,8.911156E0,7.3905573E0,1.4649887E1,2.1101389E1,0E0,0E0,2.4710566E1,1.7175407E1,7.482077E1,3.1502857E1,1.5093399E1,1.3323974E1,7.3870316E0,4.9839005E1,1.7533112E0,1.1421957E1,6.7441216E0,6.5222764E0,9.820267E0,1.6187338E1,2.2426346E1,4.8586197E0,2.9937347E1,7.660351E-1,2.0542786E1,1.6424688E1,3.8026474E1,4.7823116E1,1.792427E1,1.1691132E1,1.1329102E1,0E0,3.296032E-1,3.8161008E0,7.307335E0,8.402004E0,2.4757515E1,1.2379546E1,0E0,0E0,0E0,0E0,0E0,0E0,0E0,0E0,0E0,0E0,0E0,0E0,0E0,0E0,0E0,0E0,0E0,0E0,0E0,0E0,0E0,0E0,0E0,0E0,0E0,0E0,0E0,0E0,0E0,0E0,0E0,0E0,0E0,0E0,0E0,0E0,0E0,0E0,0E0,0E0,0E0,0E0,0E0,0E0,0E0,0E0],"parents":[2147483647,0,0,1,1,2,2,3,3,4,4,5,5,6,6,7,7,8,8,10,10,11,11,12,12,13,13,14,14,15,15,16,16,17,17,18,18,21,21,22,22,23,23,24,24,25,25,26,26,27,27,28,28,29,29,30,30,31,31,32,32,33,33,34,34,35,35,36,36,37,37,38,38,39,39,40,40,41,41,42,42,43,43,44,44,45,45,47,47,48,48,49,49,50,50,51,51,52,52],"right_children":[2,4,6,8,10,12,14,16,18,-1,20,22,24,26,28,30,32,34,36,-1,-1,38,40,42,44,46,48,50,52,54,56,58,60,62,64,66,68,70,72,74,76,78,80,82,84,86,-1,88,90,92,94,96,98,-1,-1,-1,-1,-1,-1,-1,-1,-1,-1,-1,-1,-1,-1,-1,-1,-1,-1,-1,-1,-1,-1,-1,-1,-1,-1,-1,-1,-1,-1,-1,-1,-1,-1,-1,-1,-1,-1,-1,-1,-1,-1,-1,-1,-1,-1],"split_conditions":[1E0,2.594E3,4E0,2E0,1E0,2E0,2E0,1.7E1,4.1972E4,-4.7480967E-2,3E0,3E1,1E0,7.859E3,1E0,2.93E2,4.78E2,3.3E1,1E0,-3.0272266E-1,-6.100272E-2,1E0,4.157E3,1.29503E-1,2.1E1,3E0,2.43415E-1,3E0,4E0,3.43E2,2.97E2,1.236894E0,2.277E3,1E0,1.3414E4,6E0,1.4392E4,5.6E2,1.58165E-1,2E0,1.047E3,2E0,4.837E3,2.088E3,3.64E2,1E1,-4.0991667E-1,9E0,2E0,3E0,4E0,1.1E1,1E0,-2.338046E-1,-4.7036655E-2,3.1878552E-1,-6.430921E-2,2.3826936E-1,-1.3059314E-1,-1.7707899E-1,2.9829317E-1,-2.4348965E-1,-1.423687E-1,3.176291E-1,-1.3697597E-1,-9.5874056E-2,3.0480364E-1,-2.7168018E-1,5.2422248E-2,-8.371674E-2,7.6531604E-2,1.6512911E-1,3.3031946E-1,2.747987E-1,-3.1527523E-2,1.238307E-1,-2.6362482E-1,-8.835736E-2,-3.2930756E-1,-2.2321837E-1,-8.5113355E-4,9.7306505E-2,-2.201723E-1,2.5397056E-1,-1.4678831E-1,2.5895953E-1,-1.3714491E-1,-1.0146302E-1,-3.8080236E-1,-1.999997E-1,2.737455E-1,2.5773254E-1,-3.4633982E-1,1.6992405E-1,-2.4531569E-1,-8.054433E-1,-2.178342E-1,1.4306946E-1,-1.4626586E-1],"split_indices":[3,100,3,19,36,19,104,18,99,0,1,18,20,100,106,105,100,18,107,0,0,110,100,97,37,51,97,1,36,101,105,97,100,106,99,36,105,105,97,41,101,104,99,100,101,41,0,105,36,42,104,100,107,0,0,0,0,0,0,0,0,0,0,0,0,0,0,0,0,0,0,0,0,0,0,0,0,0,0,0,0,0,0,0,0,0,0,0,0,0,0,0,0,0,0,0,0,0,0],"split_type":[0,0,0,0,0,0,0,0,0,0,0,0,0,0,0,0,0,0,0,0,0,0,0,0,0,0,0,0,0,0,0,0,0,0,0,0,0,0,0,0,0,0,0,0,0,0,0,0,0,0,0,0,0,0,0,0,0,0,0,0,0,0,0,0,0,0,0,0,0,0,0,0,0,0,0,0,0,0,0,0,0,0,0,0,0,0,0,0,0,0,0,0,0,0,0,0,0,0,0],"sum_hessian":[4.4940205E3,1.381052E3,3.1129685E3,6.372788E2,7.4377313E2,2.5666724E3,5.4629626E2,1.5798561E2,4.7929318E2,1.2385695E0,7.425346E2,7.361503E2,1.830522E3,3.9039307E2,1.559032E2,1.10493866E2,4.749174E1,3.995951E2,7.96981E1,7.411545E2,1.380115E0,4.7260898E2,2.6354138E2,1.628489E3,2.0203293E2,3.7541916E2,1.4973911E1,7.287083E1,8.303238E1,3.643097E1,7.40629E1,3.4636883E1,1.2854858E1,3.700698E2,2.9525278E1,4.8851574E1,3.0846523E1,4.4403558E2,2.857338E1,1.840282E2,7.9513176E1,2.3904976E2,1.3894393E3,6.778523E1,1.342477E2,3.7315344E2,2.265722E0,7.5365176E0,7.4373937E0,5.6252197E1,1.6618626E1,2.8150738E1,5.488164E1,3.0469051E1,5.96192E0,6.810778E0,6.725212E1,3.008249E1,4.554391E0,1.0458542E1,2.3963163E0,2.1617615E2,1.5389366E2,9.645529E0,1.987975E1,2.6590689E1,2.2260887E1,2.627857E1,4.5679536E0,1.6785715E2,2.7617844E2,6.5768266E0,2.1996553E1,1.6183325E2,2.2194937E1,6.901107E1,1.0502108E1,1.3201271E2,1.07037056E2,9.2305855E1,1.2971334E3,4.391302E1,2.3872211E1,1.2796814E2,6.2795486E0,3.6711865E2,6.034804E0,1.3533988E0,6.183119E0,1.1613809E0,6.2760124E0,5.522302E1,1.0291792E0,1.0543795E1,6.0748315E0,1.0120136E1,1.8030602E1,3.4582954E1,2.0298687E1],"tree_param":{"num_deleted":"0","num_feature":"111","num_nodes":"99","size_leaf_vector":"0"}},{"base_weights":[-1.1091056E-1,-6.658208E-1,1.0113307E-1,-3.341322E-1,-9.7851235E-1,5.4517627E-2,9.4148564E-1,-2.3564622E-1,-7.3317116E-1,-7.19444E-1,-9.977368E-1,2.4093905E-1,-9.6060134E-2,-2.030585E-1,9.693631E-1,-5.324001E-1,-2.3672339E-2,-8.0043423E-1,1.4094594E0,-7.703448E-1,3.358395E-3,-7.454615E-2,-2.9979676E-1,-3.0294916E-1,3.6226285E-1,-6.405003E-1,-1.747701E-2,9.9123156E-1,5.8813646E-2,-6.9777495E-1,1.4530744E-1,1.7836516E0,-1.4134496E-1,-2.3740327E-1,-9.0435404E-1,4.9803427E-1,1.1779553E-1,-8.1894314E-1,-2.8893533E-1,-2.0001972E-1,2.7245232E-1,-4.0338656E-1,7.190324E-1,2.2703315E-1,6.56845E-1,-2.678127E-3,-1.0340619E0,-2.1834087E-1,1.7869143E-1,1.0058805E0,-9.888646E-2,-3.741382E-1,2.4400653E-1,-2.3129238E-1,3.692628E-2,2.968812E-1,-1.5580887E-1,3.1005552E-2,7.1261764E-1,-6.062497E-2,3.307749E-1,-1.414817E-1,4.478637E-1,-1.6063498E-1,-2.8902972E-1,-2.558628E-1,-1.0243699E-1,2.8291652E-1,-2.430426E-1,-1.681661E-1,3.3083975E-2,2.595313E-1,-3.234641E-1,1.5766272E-1,1.7926747E-2,2.1197097E-1,-1.7741802E-1,8.6338095E-2,-3.3370194E-1,-3.622256E-1,2.217404E-1,-4.522175E-2,-2.6488477E-1,1.0134055E-1,-8.026602E-2,3.2447958E-1,2.3901437E-1],"categories":[],"categories_nodes":[],"categories_segments":[],"categories_sizes":[],"default_left":[0,0,0,0,0,0,0,0,0,0,0,0,0,0,0,0,0,0,0,0,0,0,0,0,0,0,0,0,0,0,0,0,0,0,0,0,0,0,0,0,0,0,0,0,0,0,0,0,0,0,0,0,0,0,0,0,0,0,0,0,0,0,0,0,0,0,0,0,0,0,0,0,0,0,0,0,0,0,0,0,0,0,0,0,0,0,0],"id":10,"left_children":[1,3,5,7,9,11,13,15,17,19,21,23,25,-1,27,29,31,33,35,37,39,-1,-1,41,43,45,47,49,51,53,55,57,59,61,63,-1,-1,65,67,-1,-1,69,71,73,75,77,79,81,83,85,-1,-1,-1,-1,-1,-1,-1,-1,-1,-1,-1,-1,-1,-1,-1,-1,-1,-1,-1,-1,-1,-1,-1,-1,-1,-1,-1,-1,-1,-1,-1,-1,-1,-1,-1,-1,-1],"loss_changes":[4.8132162E2,1.1696817E2,1.1590619E2,2.1454277E1,2.178894E0,7.877888E1,7.6720123E0,2.7844389E1,1.675961E1,1.6126862E0,3.9190674E-1,8.284904E1,6.6419975E1,0E0,2.9940186E0,2.0776825E1,5.5413315E1,5.97554E0,2.8185272E-1,7.199917E-1,2.9548178E0,0E0,0E0,2.3819592E1,4.0708878E1,4.9152237E1,5.3544495E1,3.2267609E0,5.604492E0,9.015602E0,2.1285328E1,1.5592205E1,1.8691465E1,7.933728E0,1.4228821E0,0E0,0E0,3.0169296E-1,4.163628E0,0E0,0E0,1.6963772E1,6.412162E0,3.5146076E1,2.0414276E1,2.472804E1,3.8116394E1,3.0030651E1,4.8906414E1,1.4859619E0,0E0,0E0,0E0,0E0,0E0,0E0,0E0,0E0,0E0,0E0,0E0,0E0,0E0,0E0,0E0,0E0,0E0,0E0,0E0,0E0,0E0,0E0,0E0,0E0,0E0,0E0,0E0,0E0,0E0,0E0,0E0,0E0,0E0,0E0,0E0,0E0,0E0],"parents":[2147483647,0,0,1,1,2,2,3,3,4,4,5,5,6,6,7,7,8,8,9,9,10,10,11,11,12,12,14,14,15,15,16,16,17,17,18,18,19,19,20,20,23,23,24,24,25,25,26,26,27,27,28,28,29,29,30,30,31,31,32,32,33,33,34,34,37,37,38,38,41,41,42,42,43,43,44,44,45,45,46,46,47,47,48,48,49,49],"right_children":[2,4,6,8,10,12,14,16,18,20,22,24,26,-1,28,30,32,34,36,38,40,-1,-1,42,44,46,48,50,52,54,56,58,60,62,64,-1,-1,66,68,-1,-1,70,72,74,76,78,80,82,84,86,-1,-1,-1,-1,-1,-1,-1,-1,-1,-1,-1,-1,-1,-1,-1,-1,-1,-1,-1,-1,-1,-1,-1,-1,-1,-1,-1,-1,-1,-1,-1,-1,-1,-1,-1,-1,-1],"split_conditions":[1E0,1.971E3,2E0,3E0,3.296E3,1E0,2E1,2.93E2,5E0,6.1969E4,7E0,0E0,1.70042E-1,-2.030585E-1,2.1552E4,2.2611E4,2.95E2,1E0,1.8E1,9E0,2.75E2,-7.454615E-2,-2.9979676E-1,2.9E1,3E0,2E0,3.3E1,1E0,5.2E1,3.24E2,2.9222E4,2.74851E-1,3.2E1,1.1E1,1.6583E-1,4.9803427E-1,1.1779553E-1,1E0,2.6E1,-2.0001972E-1,2.7245232E-1,3.01E2,7E0,3.28836E-1,1E0,4.84E3,2.3E1,3E0,3.85E3,3.167E3,-9.888646E-2,-3.741382E-1,2.4400653E-1,-2.3129238E-1,3.692628E-2,2.968812E-1,-1.5580887E-1,3.1005552E-2,7.1261764E-1,-6.062497E-2,3.307749E-1,-1.414817E-1,4.478637E-1,-1.6063498E-1,-2.8902972E-1,-2.558628E-1,-1.0243699E-1,2.8291652E-1,-2.430426E-1,-1.681661E-1,3.3083975E-2,2.595313E-1,-3.234641E-1,1.5766272E-1,1.7926747E-2,2.1197097E-1,-1.7741802E-1,8.6338095E-2,-3.3370194E-1,-3.622256E-1,2.217404E-1,-4.522175E-2,-2.6488477E-1,1.0134055E-1,-8.026602E-2,3.2447958E-1,2.3901437E-1],"split_indices":[3,100,17,0,100,106,18,105,0,99,37,107,97,0,105,99,105,104,36,36,101,0,0,37,3,104,18,12,18,101,99,97,18,100,97,0,0,1,18,0,0,101,1,97,60,100,37,19,100,100,0,0,0,0,0,0,0,0,0,0,0,0,0,0,0,0,0,0,0,0,0,0,0,0,0,0,0,0,0,0,0,0,0,0,0,0,0],"split_type":[0,0,0,0,0,0,0,0,0,0,0,0,0,0,0,0,0,0,0,0,0,0,0,0,0,0,0,0,0,0,0,0,0,0,0,0,0,0,0,0,0,0,0,0,0,0,0,0,0,0,0,0,0,0,0,0,0,0,0,0,0,0,0,0,0,0,0,0,0,0,0,0,0,0,0,0,0,0,0,0,0,0,0,0,0,0,0],"sum_hessian":[4.089032E3,1.1299238E3,2.9591082E3,5.4931006E2,5.806138E2,2.8045984E3,1.5450981E2,4.4184882E2,1.0746124E2,4.276312E1,5.3785065E2,1.2528807E3,1.5517177E3,2.2222724E0,1.5228754E2,1.8347728E2,2.5837155E2,1.04797775E2,2.663467E0,3.9888344E1,2.8747718E0,1.4689647E0,5.3638165E2,2.2823189E2,1.0246488E3,1.9481921E2,1.3568984E3,1.4862933E2,3.658207E0,1.4746347E2,3.6013805E1,1.4928482E1,2.4344305E2,1.6840652E1,8.795712E1,1.6291821E0,1.034285E0,3.559399E1,4.2943554E0,1.8027881E0,1.0719837E0,2.0836015E2,1.987174E1,7.0348193E2,3.2116684E2,7.472447E1,1.2009474E2,6.703698E2,6.8652856E2,1.472349E2,1.3944474E0,1.1005592E0,2.5576477E0,1.3544598E2,1.2017491E1,1.5648039E1,2.0365765E1,4.1939735E0,1.07345085E1,2.329082E2,1.0534849E1,1.5473657E1,1.3669969E0,1.3530657E1,7.442647E1,3.2498302E1,3.0956862E0,1.0360491E0,3.2583063E0,1.5947432E2,4.8885826E1,1.8857723E1,1.0140182E0,2.5187143E2,4.516105E2,3.092803E2,1.1886558E1,5.980912E1,1.491535E1,1.0968997E2,1.0404772E1,6.0959106E2,6.077874E1,5.062619E2,1.802667E2,1.0503957E2,4.2195312E1],"tree_param":{"num_deleted":"0","num_feature":"111","num_nodes":"87","size_leaf_vector":"0"}},{"base_weights":[-8.9774266E-2,-5.920727E-1,7.727163E-2,-2.4278125E-1,-9.320213E-1,3.8389836E-2,8.5689366E-1,-1.4298202E-1,-6.6996115E-1,-6.3220495E-1,-9.830717E-1,7.021987E-2,-6.9140464E-1,9.705247E-1,-3.7630522E-1,-4.3829423E-1,5.4110713E-2,-7.42389E-1,1.0458806E0,-6.5364796E-1,1.2069558E-1,-6.393863E-2,-2.9555368E-1,-9.6140794E-2,2.1434596E-1,-7.3323375E-1,5.7882243E-1,1.0170555E0,-4.09677E-1,-5.7049E-1,2.3720816E-1,-5.9398514E-1,1.2727952E-1,1.0797933E0,-3.423126E-2,5.8565235E-1,-7.8319544E-1,1.23373084E-1,4.0531483E-1,-1.4729075E-1,-7.045495E-1,-7.51922E-2,-1.8498722E0,7.2508E-1,1.4079162E-1,-7.918043E-1,7.510506E-1,1.0454464E0,-2.7197412E-1,2.1324115E-1,-3.9913425E-1,-9.310826E-1,2.4781828E-1,-2.2057527E-1,1.0568985E-2,1.9901502E-1,-2.3148365E-1,1.419524E-1,6.306709E-1,-5.4825205E-2,9.0359636E-2,4.399042E-1,-1.6232754E-1,-2.4327062E-1,1.2144738E-1,-1.5857518E-1,2.0212765E-1,-2.1994798E-1,4.018431E-2,-2.6049193E-3,-1.6869223E-1,-7.002419E-1,1.4166122E-2,2.3458508E-1,-1.5140226E-1,9.744038E-2,-1.66648E-2,-2.6379684E-1,2.5415521E-2,-1.95364E-1,4.3635416E-1,3.1743854E-1,-3.0704273E-2,-1.9279689E-1,8.659217E-2,-3.565978E-1,9.702143E-2,2.5200638E-1,-1.516364E-1],"categories":[],"categories_nodes":[],"categories_segments":[],"categories_sizes":[],"default_left":[0,0,0,0,0,0,0,0,0,0,0,0,0,0,0,0,0,0,0,0,0,0,0,0,0,0,0,0,0,0,0,0,0,0,0,0,0,0,0,0,0,0,0,0,0,0,0,0,0,0,0,0,0,0,0,0,0,0,0,0,0,0,0,0,0,0,0,0,0,0,0,0,0,0,0,0,0,0,0,0,0,0,0,0,0,0,0,0,0],"id":11,"left_children":[1,3,5,7,9,11,13,15,17,19,21,23,25,27,29,31,33,35,37,39,-1,-1,-1,41,43,45,-1,47,49,51,-1,53,55,57,59,61,63,-1,-1,65,67,69,71,73,75,77,79,81,83,-1,-1,85,87,-1,-1,-1,-1,-1,-1,-1,-1,-1,-1,-1,-1,-1,-1,-1,-1,-1,-1,-1,-1,-1,-1,-1,-1,-1,-1,-1,-1,-1,-1,-1,-1,-1,-1,-1,-1],"loss_changes":[3.1576898E2,1.1129291E2,8.558954E1,1.9710135E1,6.6579285E0,6.256973E1,1.9161018E1,2.2017006E1,1.1676605E1,1.860199E0,4.465027E-1,6.1878525E1,1.3755859E1,8.3220215E0,3.1788692E0,1.3403278E1,2.0651793E1,5.051094E0,2.1279049E-1,1.7241402E0,0E0,0E0,0E0,4.388291E1,5.183888E1,1.0290676E1,0E0,4.652771E0,5.822972E0,3.4473186E0,0E0,1.0591099E1,1.6653158E1,1.0214251E1,1.0538586E1,3.8680227E0,3.0485878E0,0E0,0E0,2.779958E0,1.6378059E0,3.839147E1,1.3065819E1,1.2550598E1,4.3727097E1,8.342789E0,5.6300297E0,1.8114243E0,8.849758E-1,0E0,0E0,2.8973112E0,2.2642934E0,0E0,0E0,0E0,0E0,0E0,0E0,0E0,0E0,0E0,0E0,0E0,0E0,0E0,0E0,0E0,0E0,0E0,0E0,0E0,0E0,0E0,0E0,0E0,0E0,0E0,0E0,0E0,0E0,0E0,0E0,0E0,0E0,0E0,0E0,0E0,0E0],"parents":[2147483647,0,0,1,1,2,2,3,3,4,4,5,5,6,6,7,7,8,8,9,9,10,10,11,11,12,12,13,13,14,14,15,15,16,16,17,17,18,18,19,19,23,23,24,24,25,25,27,27,28,28,29,29,31,31,32,32,33,33,34,34,35,35,36,36,39,39,40,40,41,41,42,42,43,43,44,44,45,45,46,46,47,47,48,48,51,51,52,52],"right_children":[2,4,6,8,10,12,14,16,18,20,22,24,26,28,30,32,34,36,38,40,-1,-1,-1,42,44,46,-1,48,50,52,-1,54,56,58,60,62,64,-1,-1,66,68,70,72,74,76,78,80,82,84,-1,-1,86,88,-1,-1,-1,-1,-1,-1,-1,-1,-1,-1,-1,-1,-1,-1,-1,-1,-1,-1,-1,-1,-1,-1,-1,-1,-1,-1,-1,-1,-1,-1,-1,-1,-1,-1,-1,-1],"split_conditions":[1E0,8.9E2,1.16E2,3E0,3.296E3,7.761E3,9E0,2.93E2,5E0,2E0,7E0,1.7054E4,1E0,1E0,1.2E1,2.2611E4,2.95E2,2E0,1.3647E4,3.9E1,1.2069558E-1,-6.393863E-2,-2.9555368E-1,1.6625E4,2.0401E4,2E0,5.7882243E-1,2.9E1,3E0,5.6E2,2.3720816E-1,2.06E2,3E0,2.94E2,4.1972E4,4.77247E-1,2E0,1.23373084E-1,4.0531483E-1,1.1103E4,3.3E1,3E0,3E0,1.44E4,1E0,1E0,2.43415E-1,1E0,5.1E1,2.1324115E-1,-3.9913425E-1,1.04E2,2.0401E4,-2.2057527E-1,1.0568985E-2,1.9901502E-1,-2.3148365E-1,1.419524E-1,6.306709E-1,-5.4825205E-2,9.0359636E-2,4.399042E-1,-1.6232754E-1,-2.4327062E-1,1.2144738E-1,-1.5857518E-1,2.0212765E-1,-2.1994798E-1,4.018431E-2,-2.6049193E-3,-1.6869223E-1,-7.002419E-1,1.4166122E-2,2.3458508E-1,-1.5140226E-1,9.744038E-2,-1.66648E-2,-2.6379684E-1,2.5415521E-2,-1.95364E-1,4.3635416E-1,3.1743854E-1,-3.0704273E-2,-1.9279689E-1,8.659217E-2,-3.565978E-1,9.702143E-2,2.5200638E-1,-1.516364E-1],"split_indices":[3,100,18,0,100,100,41,105,0,1,37,99,45,12,36,99,105,36,99,101,0,0,0,99,99,40,0,16,104,105,0,101,103,105,99,97,17,0,0,105,18,19,19,105,106,2,97,68,16,0,0,75,99,0,0,0,0,0,0,0,0,0,0,0,0,0,0,0,0,0,0,0,0,0,0,0,0,0,0,0,0,0,0,0,0,0,0,0,0],"split_type":[0,0,0,0,0,0,0,0,0,0,0,0,0,0,0,0,0,0,0,0,0,0,0,0,0,0,0,0,0,0,0,0,0,0,0,0,0,0,0,0,0,0,0,0,0,0,0,0,0,0,0,0,0,0,0,0,0,0,0,0,0,0,0,0,0,0,0,0,0,0,0,0,0,0,0,0,0,0,0,0,0,0,0,0,0,0,0,0,0],"sum_hessian":[3.7617805E3,9.381792E2,2.8236013E3,4.6357642E2,4.746028E2,2.6904697E3,1.3313155E2,3.768663E2,8.67101E1,7.100105E1,4.0360178E2,2.5788948E3,1.11574875E2,1.2209436E2,1.1037176E1,1.5035675E2,2.2650955E2,8.3742546E1,2.9675481E0,6.991995E1,1.0810975E0,1.3803903E0,4.0222137E2,1.1972622E3,1.3816327E3,1.1053099E2,1.0438864E0,1.1836697E2,3.7273996E0,9.900855E0,1.1363218E0,1.1786161E2,3.2495136E1,1.7072199E1,2.0943736E2,2.0983963E0,8.164415E1,1.725905E0,1.2416432E0,6.742336E0,6.3177616E1,1.18416E3,1.31021E1,1.728146E2,1.2088181E3,1.0678379E2,3.7471979E0,1.1600101E2,2.3659575E0,1.7842222E0,1.9431773E0,6.7768016E0,3.1240532E0,9.611436E1,2.1747253E1,2.051931E1,1.1975828E1,1.1633058E1,5.439142E0,1.4547855E2,6.3958817E1,1.0086246E0,1.0897716E0,8.0093666E1,1.5504843E0,4.847418E0,1.894918E0,6.1214542E1,1.9630754E0,1.0427977E3,1.413624E2,1.0254163E1,2.847938E0,1.6552405E2,7.2905507E0,6.236668E2,5.8515125E2,9.708675E1,9.697046E0,1.276645E0,2.470553E0,1.1481057E2,1.1904339E0,1.3361464E0,1.029811E0,5.6659236E0,1.1108779E0,1.6845462E0,1.439507E0],"tree_param":{"num_deleted":"0","num_feature":"111","num_nodes":"89","size_leaf_vector":"0"}},{"base_weights":[-7.112356E-2,-5.1766354E-1,5.7818513E-2,-2.2536978E-1,-9.5665425E-1,2.4070876E-2,8.345922E-1,-3.0467668E-1,2.3924714E-1,-7.687874E-1,-9.8376244E-1,8.715146E-2,-2.98768E-1,5.8889907E-2,9.112117E-1,-4.864331E-1,-1.4081366E-1,1.0811837E-1,7.2000366E-1,-8.407893E-1,-1.2028357E-1,-2.9615244E-1,-4.5305339E-1,-8.414596E-2,2.272038E-1,4.8150736E-1,-5.484154E-1,-6.1681926E-1,8.5927427E-1,9.45938E-1,1.08636E-1,-8.013878E-2,-6.119673E-1,1.5534784E-1,-2.9424608E-1,-4.4924825E-2,6.8821156E-1,1.0733482E0,-3.2692644E-1,-3.531564E-1,-8.7779844E-1,2.95979E-1,-5.7615584E-1,-2.4292446E-3,-1.8666507E-1,1.0485644E-1,-3.3190903E-1,5.233464E-1,1.1235105E-1,1.1380306E0,-2.0565857E-1,-7.545928E-1,1.5148196E-1,2.3069634E-1,-1.3958673E0,3.5702205E-1,-8.295964E-2,9.6428585E-1,-6.911515E-2,2.4729265E-1,-4.513994E-1,-4.711844E-2,3.2505745E-1,-2.0610367E-1,1.4498451E-2,-2.869632E-2,2.8315046E-1,-2.1991828E-1,-1.5558488E-2,-6.839999E-2,1.13555215E-1,3.679032E-2,4.7430545E-1,3.6633265E-1,-5.2295085E-2,-2.0135136E-1,1.213376E-1,-2.098368E-1,7.755785E-2,-5.4776266E-2,-2.6955754E-1,-2.4053052E-3,-2.1961984E-1,-1.9791158E-2,1.9536287E-1,-3.9451797E-3,-1.6304727E-1,2.0804839E-1,4.674792E-2,-9.6095294E-2,5.822501E-2,3.8730162E-1,9.793873E-2,5.9397075E-2,-2.8733563E-1,-2.4323449E-1,1.6610043E-1,8.731819E-2,-2.8456372E-1,-5.38095E-1,-1.9163676E-1,3.0864906E-1,2.2382657E-1],"categories":[],"categories_nodes":[],"categories_segments":[],"categories_sizes":[],"default_left":[0,0,0,0,0,0,0,0,0,0,0,0,0,0,0,0,0,0,0,0,0,0,0,0,0,0,0,0,0,0,0,0,0,0,0,0,0,0,0,0,0,0,0,0,0,0,0,0,0,0,0,0,0,0,0,0,0,0,0,0,0,0,0,0,0,0,0,0,0,0,0,0,0,0,0,0,0,0,0,0,0,0,0,0,0,0,0,0,0,0,0,0,0,0,0,0,0,0,0,0,0,0,0],"id":12,"left_children":[1,3,5,7,9,11,13,15,17,19,21,23,25,27,29,31,33,35,37,39,41,-1,43,45,47,49,51,53,55,57,59,61,63,65,67,69,71,73,75,77,79,-1,81,-1,-1,83,85,87,89,91,93,95,97,-1,99,-1,-1,101,-1,-1,-1,-1,-1,-1,-1,-1,-1,-1,-1,-1,-1,-1,-1,-1,-1,-1,-1,-1,-1,-1,-1,-1,-1,-1,-1,-1,-1,-1,-1,-1,-1,-1,-1,-1,-1,-1,-1,-1,-1,-1,-1,-1,-1],"loss_changes":[2.035752E2,1.014324E2,7.1910706E1,1.7643711E1,8.546448E-1,5.3600597E1,6.734894E0,1.207608E1,4.340574E0,1.9750748E0,4.6936035E-2,5.283447E1,8.407083E1,6.6613336E0,2.792511E0,9.790646E0,9.85393E0,5.024279E0,5.8418665E0,4.0924454E-1,3.3994186E0,0E0,2.6529115E-1,4.644192E1,4.1147205E1,4.752195E1,4.7216934E1,8.338497E0,2.435988E0,2.3684769E0,7.519227E0,4.349335E0,7.328827E0,1.4798325E1,1.5121759E1,3.6090622E0,5.7657576E0,2.3018456E0,1.4074954E0,1.1307628E0,3.6000443E-1,0E0,4.0204406E-1,0E0,0E0,5.258241E1,2.8931816E1,2.1045334E1,3.0976822E1,6.2525024E0,1.5995113E1,1.899585E1,1.1808275E1,0E0,2.5849152E-1,0E0,0E0,6.1413574E-1,0E0,0E0,0E0,0E0,0E0,0E0,0E0,0E0,0E0,0E0,0E0,0E0,0E0,0E0,0E0,0E0,0E0,0E0,0E0,0E0,0E0,0E0,0E0,0E0,0E0,0E0,0E0,0E0,0E0,0E0,0E0,0E0,0E0,0E0,0E0,0E0,0E0,0E0,0E0,0E0,0E0,0E0,0E0,0E0,0E0],"parents":[2147483647,0,0,1,1,2,2,3,3,4,4,5,5,6,6,7,7,8,8,9,9,10,10,11,11,12,12,13,13,14,14,15,15,16,16,17,17,18,18,19,19,20,20,22,22,23,23,24,24,25,25,26,26,27,27,28,28,29,29,30,30,31,31,32,32,33,33,34,34,35,35,36,36,37,37,38,38,39,39,40,40,42,42,45,45,46,46,47,47,48,48,49,49,50,50,51,51,52,52,54,54,57,57],"right_children":[2,4,6,8,10,12,14,16,18,20,22,24,26,28,30,32,34,36,38,40,42,-1,44,46,48,50,52,54,56,58,60,62,64,66,68,70,72,74,76,78,80,-1,82,-1,-1,84,86,88,90,92,94,96,98,-1,100,-1,-1,102,-1,-1,-1,-1,-1,-1,-1,-1,-1,-1,-1,-1,-1,-1,-1,-1,-1,-1,-1,-1,-1,-1,-1,-1,-1,-1,-1,-1,-1,-1,-1,-1,-1,-1,-1,-1,-1,-1,-1,-1,-1,-1,-1,-1,-1],"split_conditions":[1E0,2.716E3,2E0,1E0,2E0,2E0,3E1,1.5244E4,2.75E2,8E0,2E0,2E0,1E0,1.9E1,2E0,2E0,2.7715E4,3.6408E4,1.52E2,3.21E3,1.2E2,-2.9615244E-1,3.9186E-1,2.93E2,2E0,2.9E1,1E0,1.4E1,2.425E3,1E0,3.167E3,2.4E1,3E0,2.6496E4,4.1972E4,2.9E1,4E0,1.569631E0,1.996E3,3.42E2,7E0,2.95979E-1,4.05246E-1,-2.4292446E-3,-1.8666507E-1,4.1972E4,2E0,4.157E3,1.32678E-1,1.5244E4,2E0,1.0799E4,1E1,2.3069634E-1,1.37E2,3.5702205E-1,-8.295964E-2,2E0,-6.911515E-2,2.4729265E-1,-4.513994E-1,-4.711844E-2,3.2505745E-1,-2.0610367E-1,1.4498451E-2,-2.869632E-2,2.8315046E-1,-2.1991828E-1,-1.5558488E-2,-6.839999E-2,1.13555215E-1,3.679032E-2,4.7430545E-1,3.6633265E-1,-5.2295085E-2,-2.0135136E-1,1.213376E-1,-2.098368E-1,7.755785E-2,-5.4776266E-2,-2.6955754E-1,-2.4053052E-3,-2.1961984E-1,-1.9791158E-2,1.9536287E-1,-3.9451797E-3,-1.6304727E-1,2.0804839E-1,4.674792E-2,-9.6095294E-2,5.822501E-2,3.8730162E-1,9.793873E-2,5.9397075E-2,-2.8733563E-1,-2.4323449E-1,1.6610043E-1,8.731819E-2,-2.8456372E-1,-5.38095E-1,-1.9163676E-1,3.0864906E-1,2.2382657E-1],"split_indices":[3,100,17,1,0,102,18,99,101,36,17,43,104,37,107,19,99,99,100,100,101,0,97,100,19,100,98,37,100,12,100,18,102,99,99,18,103,97,105,101,37,0,97,0,0,99,0,100,97,99,3,105,103,0,101,0,0,104,0,0,0,0,0,0,0,0,0,0,0,0,0,0,0,0,0,0,0,0,0,0,0,0,0,0,0,0,0,0,0,0,0,0,0,0,0,0,0,0,0,0,0,0,0],"split_type":[0,0,0,0,0,0,0,0,0,0,0,0,0,0,0,0,0,0,0,0,0,0,0,0,0,0,0,0,0,0,0,0,0,0,0,0,0,0,0,0,0,0,0,0,0,0,0,0,0,0,0,0,0,0,0,0,0,0,0,0,0,0,0,0,0,0,0,0,0,0,0,0,0,0,0,0,0,0,0,0,0,0,0,0,0,0,0,0,0,0,0,0,0,0,0,0,0,0,0,0,0,0,0],"sum_hessian":[3.5341353E3,7.9118024E2,2.742955E3,4.758547E2,3.1532553E2,2.6297349E3,1.1322022E2,4.067667E2,6.908801E1,4.3464592E1,2.7186093E2,2.2005015E3,4.292334E2,1.0336927E1,1.0288329E2,1.9192047E2,2.1484624E2,5.5244648E1,1.3843365E1,3.8854195E1,4.6103997E0,2.6926947E2,2.5914516E0,9.9001605E2,1.2104854E3,1.03818596E2,3.254148E2,5.729366E0,4.607561E0,9.844509E1,4.438199E0,4.5688145E1,1.4623233E2,7.331607E1,1.4153015E2,4.4442226E1,1.0802423E1,1.0331272E1,3.5120928E0,3.4845188E0,3.5369675E1,1.0052963E0,3.6051035E0,1.002476E0,1.5889758E0,5.619316E2,4.2808444E2,3.372765E2,8.7320886E2,5.2757538E1,5.1061058E1,2.5130627E2,7.410852E1,2.0664253E0,3.6629405E0,3.5313041E0,1.0762572E0,9.711065E1,1.3344474E0,3.4131522E0,1.0250467E0,4.366664E1,2.0215058E0,1.3127231E2,1.4960019E1,5.6279182E1,1.7036892E1,4.9638977E1,9.189118E1,3.1349731E1,1.3092494E1,7.309403E0,3.4930193E0,9.256332E0,1.07494E0,2.4440622E0,1.0680307E0,2.133282E0,1.351237E0,1.3079476E0,3.4061726E1,1.002696E0,2.6024075E0,4.287535E2,1.3317812E2,1.7121014E2,2.568743E2,2.2993713E2,1.0733935E2,1.3827887E2,7.3493E2,4.389323E1,8.864308E0,3.370769E1,1.7353367E1,2.4132193E2,9.984341E0,6.641656E1,7.6919594E0,1.5036967E0,2.1592436E0,7.207517E1,2.5035477E1],"tree_param":{"num_deleted":"0","num_feature":"111","num_nodes":"103","size_leaf_vector":"0"}},{"base_weights":[-5.5087708E-2,-4.4310036E-1,4.571565E-2,-1.7401339E-1,-9.3208075E-1,1.5041574E-2,7.4460775E-1,6.6986865E-1,-1.8586041E-1,-6.540073E-1,-9.596237E-1,9.3485564E-2,-1.9797017E-1,9.08639E-1,-5.106407E-1,-1.1548607E-1,-5.8024794E-1,1.0170511E-1,-7.5308514E-1,-7.576941E-1,-2.9506963E-1,1.5861394E-2,3.2261193E-1,-4.891895E-1,-4.117864E-2,9.7197723E-1,-5.177423E-1,-7.448375E-1,3.286083E-1,-5.487769E-1,-4.2835746E-2,-6.6249925E-1,9.341932E-1,-8.208718E-1,-6.6043615E-2,1.24406315E-1,-8.522853E-1,1.5081953E0,-6.3491514E-4,2.137519E-2,6.1820245E-1,-2.364025E-1,-7.976608E-1,-5.962068E-1,6.1981685E-2,1.0023493E0,-2.5439915E-1,1.9066547E-1,-3.5438326E-1,-1.0835762E0,-3.1808734E-2,-4.7828633E-2,2.2570515E-1,-1.849675E-1,2.2099039E-1,3.7062362E-1,-2.7123038E-2,-1.2083922E-1,-2.613151E-1,3.188342E-1,8.63021E-2,-6.1956998E-2,-2.5706056E-1,-1.6327682E-1,1.445223E-1,-1.8121496E-1,2.848515E-1,-1.2850006E-1,-2.7489388E-1,5.079637E-1,2.528885E-1,1.7237943E-2,-1.4252461E-1,6.9504835E-2,-1.4523843E-1,2.0557472E-1,-1.7503366E-1,-1.3509646E-1,5.833846E-2,3.1279E-1,-2.5029796E-1,-2.3801829E-1,-5.289528E-2,7.398911E-2,-7.516861E-2,3.0558726E-1,-5.7700448E-2,-1.738166E-1,5.576789E-2,4.729999E-3,-3.9023465E-1,-1.7355987E-1,1.8679337E-1],"categories":[],"categories_nodes":[],"categories_segments":[],"categories_sizes":[],"default_left":[0,0,0,0,0,0,0,0,0,0,0,0,0,0,0,0,0,0,0,0,0,0,0,0,0,0,0,0,0,0,0,0,0,0,0,0,0,0,0,0,0,0,0,0,0,0,0,0,0,0,0,0,0,0,0,0,0,0,0,0,0,0,0,0,0,0,0,0,0,0,0,0,0,0,0,0,0,0,0,0,0,0,0,0,0,0,0,0,0,0,0,0,0],"id":13,"left_children":[1,3,5,7,9,11,13,-1,15,17,19,21,23,25,27,29,31,-1,33,35,-1,37,39,41,43,45,47,49,51,53,55,57,59,61,63,65,67,69,71,73,75,77,79,81,83,85,87,-1,-1,89,91,-1,-1,-1,-1,-1,-1,-1,-1,-1,-1,-1,-1,-1,-1,-1,-1,-1,-1,-1,-1,-1,-1,-1,-1,-1,-1,-1,-1,-1,-1,-1,-1,-1,-1,-1,-1,-1,-1,-1,-1,-1,-1],"loss_changes":[1.2949821E2,8.9673325E1,5.634047E1,1.3007952E1,1.2268219E0,4.21115E1,2.3215351E1,0E0,1.2155907E1,2.7111168E0,3.0947876E-1,3.2752308E1,3.0952755E1,9.364784E0,2.8806381E0,1.1779581E1,8.894426E0,0E0,1.0172606E0,2.3988657E0,0E0,3.3894123E1,4.1482147E1,1.8315807E1,2.5345814E1,3.7660904E0,4.441401E0,2.5718927E0,8.685155E-1,5.1378384E0,1.9705132E1,3.0936909E0,1.3273001E-2,2.841921E-1,1.0882968E0,2.6976206E0,2.8464317E-1,4.253807E-1,3.758752E1,2.4759312E1,1.934716E1,1.2239729E1,8.053284E0,5.6040688E0,2.1625368E1,1.9883499E0,5.478014E-1,0E0,0E0,1.7601337E0,1.972372E0,0E0,0E0,0E0,0E0,0E0,0E0,0E0,0E0,0E0,0E0,0E0,0E0,0E0,0E0,0E0,0E0,0E0,0E0,0E0,0E0,0E0,0E0,0E0,0E0,0E0,0E0,0E0,0E0,0E0,0E0,0E0,0E0,0E0,0E0,0E0,0E0,0E0,0E0,0E0,0E0,0E0,0E0],"parents":[2147483647,0,0,1,1,2,2,3,3,4,4,5,5,6,6,8,8,9,9,10,10,11,11,12,12,13,13,14,14,15,15,16,16,18,18,19,19,21,21,22,22,23,23,24,24,25,25,26,26,27,27,28,28,29,29,30,30,31,31,32,32,33,33,34,34,35,35,36,36,37,37,38,38,39,39,40,40,41,41,42,42,43,43,44,44,45,45,46,46,49,49,50,50],"right_children":[2,4,6,8,10,12,14,-1,16,18,20,22,24,26,28,30,32,-1,34,36,-1,38,40,42,44,46,48,50,52,54,56,58,60,62,64,66,68,70,72,74,76,78,80,82,84,86,88,-1,-1,90,92,-1,-1,-1,-1,-1,-1,-1,-1,-1,-1,-1,-1,-1,-1,-1,-1,-1,-1,-1,-1,-1,-1,-1,-1,-1,-1,-1,-1,-1,-1,-1,-1,-1,-1,-1,-1,-1,-1,-1,-1,-1,-1],"split_conditions":[1E0,2.594E3,1.11E2,1E0,4.005E3,3.321E3,9E0,6.6986865E-1,3E0,3.9E1,2E0,3.641E3,3.1756E-1,1E0,1.24E2,5.2E1,5E0,1.0170511E-1,1E0,1E0,-2.9506963E-1,1E0,2.8E1,3.48E2,2E0,2.9E1,3E0,3.16E2,2E0,2E0,5.8E1,5.09107E-1,4.7E1,1.1E1,2.59E2,1.5E1,4.792E3,2E1,3E0,1.027734E0,5E0,3.592E3,1E0,1.0358E4,2E0,2E0,4.6E1,1.9066547E-1,-3.5438326E-1,1.6583E-1,1E0,-4.7828633E-2,2.2570515E-1,-1.849675E-1,2.2099039E-1,3.7062362E-1,-2.7123038E-2,-1.2083922E-1,-2.613151E-1,3.188342E-1,8.63021E-2,-6.1956998E-2,-2.5706056E-1,-1.6327682E-1,1.445223E-1,-1.8121496E-1,2.848515E-1,-1.2850006E-1,-2.7489388E-1,5.079637E-1,2.528885E-1,1.7237943E-2,-1.4252461E-1,6.9504835E-2,-1.4523843E-1,2.0557472E-1,-1.7503366E-1,-1.3509646E-1,5.833846E-2,3.1279E-1,-2.5029796E-1,-2.3801829E-1,-5.289528E-2,7.398911E-2,-7.516861E-2,3.0558726E-1,-5.7700448E-2,-1.738166E-1,5.576789E-2,4.729999E-3,-3.9023465E-1,-1.7355987E-1,1.8679337E-1],"split_indices":[3,100,18,17,100,100,41,0,19,101,0,105,97,12,57,105,0,0,1,104,0,17,18,101,57,16,104,101,104,1,105,97,18,18,101,18,100,57,19,97,103,105,36,105,104,68,16,0,0,97,40,0,0,0,0,0,0,0,0,0,0,0,0,0,0,0,0,0,0,0,0,0,0,0,0,0,0,0,0,0,0,0,0,0,0,0,0,0,0,0,0,0,0],"split_type":[0,0,0,0,0,0,0,0,0,0,0,0,0,0,0,0,0,0,0,0,0,0,0,0,0,0,0,0,0,0,0,0,0,0,0,0,0,0,0,0,0,0,0,0,0,0,0,0,0,0,0,0,0,0,0,0,0,0,0,0,0,0,0,0,0,0,0,0,0,0,0,0,0,0,0,0,0,0,0,0,0,0,0,0,0,0,0,0,0,0,0,0,0],"sum_hessian":[3.3093577E3,6.817536E2,2.627604E3,4.4062988E2,2.4112372E2,2.518107E3,1.09497116E2,1.2399367E0,4.3938992E2,2.3960773E1,2.1716293E2,1.8407799E3,6.7732697E2,9.708636E1,1.2410763E1,3.7395447E2,6.543546E1,1.9540683E0,2.2006704E1,2.6479212E1,1.9068373E2,1.3757635E3,4.6501642E2,2.3630394E2,4.41023E2,9.326357E1,3.822781E0,9.791022E0,2.619741E0,5.2756702E1,3.2119775E2,6.2598213E1,2.8372488E0,1.9853113E1,2.1535907E0,2.5339465E0,2.3945265E1,1.4052821E1,1.3617107E3,2.3083968E2,2.3417674E2,1.3084503E2,1.0545891E2,6.837408E1,3.7264893E2,9.118791E1,2.0756593E0,1.4115437E0,2.4112372E0,6.2853565E0,3.5056658E0,1.5073912E0,1.1123497E0,5.06084E1,2.1483047E0,1.062959E1,3.1056818E2,2.9185658E1,3.3412556E1,1.8295225E0,1.0077263E0,1.4717821E0,1.8381332E1,1.1532513E0,1.0003394E0,1.4880741E0,1.0458724E0,4.1508274E0,1.9794437E1,9.785856E0,4.266965E0,1.2139454E3,1.4776532E2,1.6340076E2,6.743893E1,2.2220825E2,1.1968489E1,8.7404526E1,4.3440502E1,1.5241429E0,1.0393477E2,4.591979E1,2.245429E1,2.3438612E2,1.382628E2,9.010777E1,1.080143E0,1.0124375E0,1.0632217E0,1.1899718E0,5.0953846E0,1.9732428E0,1.5324229E0],"tree_param":{"num_deleted":"0","num_feature":"111","num_nodes":"93","size_leaf_vector":"0"}},{"base_weights":[-4.2346124E-2,-3.6829743E-1,3.518418E-2,-7.898196E-2,-8.153978E-1,1.0600983E-2,7.446737E-1,-2.0589876E-1,2.1796027E-1,-5.202961E-1,-9.409792E-1,-2.5038843E-3,1.01485E0,5.2129697E-2,8.2528937E-1,-5.845849E-2,-5.4420125E-1,3.688533E-1,-4.4615597E-1,1.0050976E-1,-5.9472364E-1,-6.978442E-1,-2.917107E-1,1.8505482E-1,-7.732913E-2,1.0923324E0,-5.8786724E-2,-5.450101E-1,7.986747E-1,9.510037E-1,4.1232428E-1,-2.4091566E-1,6.1314374E-1,-8.005668E-1,1.3242178E-1,-6.5283793E-1,4.4622752E-1,-1.0307199E0,3.8497016E-1,-4.398641E-1,6.413992E-1,-6.361378E-1,2.6307383E-1,9.465883E-2,-8.077846E-1,6.947492E-3,4.3327275E-1,-1.1714271E-1,3.620247E-1,1.1179404E0,1.24314465E-1,-1.5920188E-1,1.3386376E-1,2.0984644E-1,-1.1741772E0,2.9639938E-1,2.9123882E-2,9.7909063E-1,-5.9588928E-2,6.4202297E-1,-9.2557055E-1,-1.5508056E-1,-3.3501924E-3,3.3692575E-1,-6.427125E-2,-2.6112878E-1,-3.3527855E-2,2.3288156E-1,-7.302123E-2,2.0321421E-1,-3.098595E-1,9.4480745E-2,3.4620285E-1,-3.9481558E-2,-3.372171E-1,-2.2623105E-1,3.381793E-1,8.0641836E-2,-2.2584301E-1,3.3464336E-1,-1.6472587E-1,-2.3992647E-1,-1.419681E-1,2.3782746E-1,-1.7293206E-1,-1.8413748E-1,2.7621773E-1,-2.6668692E-1,-9.2814125E-2,-9.8184235E-2,5.6140427E-2,-1.0350873E-1,1.6335255E-1,-2.226457E-2,-1.8675214E-1,-4.3534823E-2,1.9683684E-1,3.4409118E-1,1.2617737E-1,-9.047234E-2,-4.0926063E-1,2.9868013E-1,5.452903E-2,-1.665115E-1,2.4857031E-1,-3.8962942E-1,-3.243191E-2],"categories":[],"categories_nodes":[],"categories_segments":[],"categories_sizes":[],"default_left":[0,0,0,0,0,0,0,0,0,0,0,0,0,0,0,0,0,0,0,0,0,0,0,0,0,0,0,0,0,0,0,0,0,0,0,0,0,0,0,0,0,0,0,0,0,0,0,0,0,0,0,0,0,0,0,0,0,0,0,0,0,0,0,0,0,0,0,0,0,0,0,0,0,0,0,0,0,0,0,0,0,0,0,0,0,0,0,0,0,0,0,0,0,0,0,0,0,0,0,0,0,0,0,0,0,0,0],"id":14,"left_children":[1,3,5,7,9,11,13,15,17,19,21,23,25,27,29,31,33,35,37,39,41,43,-1,45,47,49,51,53,55,57,59,61,63,65,67,69,71,73,75,77,79,81,83,85,87,89,91,93,95,97,-1,-1,-1,-1,99,-1,-1,101,-1,103,105,-1,-1,-1,-1,-1,-1,-1,-1,-1,-1,-1,-1,-1,-1,-1,-1,-1,-1,-1,-1,-1,-1,-1,-1,-1,-1,-1,-1,-1,-1,-1,-1,-1,-1,-1,-1,-1,-1,-1,-1,-1,-1,-1,-1,-1,-1],"loss_changes":[7.940422E1,7.803285E1,4.427317E1,1.3901007E1,8.296753E0,3.2309357E1,4.702957E0,1.28414545E1,1.124544E1,3.4333E0,5.812988E-1,3.403582E1,2.6949348E0,4.8624463E0,3.557457E0,2.2311193E1,1.3674019E1,7.457511E0,1.0563086E1,2.8167038E0,2.4885616E0,2.029643E0,0E0,3.057288E1,3.0366686E1,4.9697876E-2,9.701787E-1,5.6070123E0,5.441842E-1,2.0529747E0,6.592943E0,9.059227E0,1.6662495E1,2.6392937E0,5.597309E0,4.1310253E0,7.5225487E0,9.058237E-1,8.771264E0,1.2959553E0,3.287993E0,1.2907639E0,2.1097348E0,2.6872299E0,5.2565575E-1,2.4373104E1,2.5201271E1,3.4453743E1,2.1615402E1,8.203888E-2,0E0,0E0,0E0,0E0,3.236475E-1,0E0,0E0,5.608444E-1,0E0,4.3119245E0,8.5712194E-1,0E0,0E0,0E0,0E0,0E0,0E0,0E0,0E0,0E0,0E0,0E0,0E0,0E0,0E0,0E0,0E0,0E0,0E0,0E0,0E0,0E0,0E0,0E0,0E0,0E0,0E0,0E0,0E0,0E0,0E0,0E0,0E0,0E0,0E0,0E0,0E0,0E0,0E0,0E0,0E0,0E0,0E0,0E0,0E0,0E0,0E0],"parents":[2147483647,0,0,1,1,2,2,3,3,4,4,5,5,6,6,7,7,8,8,9,9,10,10,11,11,12,12,13,13,14,14,15,15,16,16,17,17,18,18,19,19,20,20,21,21,23,23,24,24,25,25,26,26,27,27,28,28,29,29,30,30,31,31,32,32,33,33,34,34,35,35,36,36,37,37,38,38,39,39,40,40,41,41,42,42,43,43,44,44,45,45,46,46,47,47,48,48,49,49,54,54,57,57,59,59,60,60],"right_children":[2,4,6,8,10,12,14,16,18,20,22,24,26,28,30,32,34,36,38,40,42,44,-1,46,48,50,52,54,56,58,60,62,64,66,68,70,72,74,76,78,80,82,84,86,88,90,92,94,96,98,-1,-1,-1,-1,100,-1,-1,102,-1,104,106,-1,-1,-1,-1,-1,-1,-1,-1,-1,-1,-1,-1,-1,-1,-1,-1,-1,-1,-1,-1,-1,-1,-1,-1,-1,-1,-1,-1,-1,-1,-1,-1,-1,-1,-1,-1,-1,-1,-1,-1,-1,-1,-1,-1,-1,-1],"split_conditions":[1E0,6.19E2,2E0,1.1E1,4.005E3,3.9E1,3E1,2E0,5.4641E4,3.9E1,2E0,2E0,1.003617E0,1.9E1,4.615E3,4.1972E4,2.5E1,3E0,1.96645E5,2E1,3.2E1,1E0,-2.917107E-1,3E0,1E0,6.59586E-1,1.6509E4,1.4E1,8E0,1E0,1E0,2.93E2,5.4641E4,6E0,2.87E2,8.426E3,2E0,5.9504E4,1.62E2,1.3E1,4E0,1.7E1,3.592E3,1.7E1,1.439E4,1.3E1,5.7E1,7.09E2,7E0,5E0,1.24314465E-1,-1.5920188E-1,1.3386376E-1,2.0984644E-1,1.6509E4,2.9639938E-1,2.9123882E-2,2.9E1,-5.9588928E-2,5.019E3,5.5E1,-1.5508056E-1,-3.3501924E-3,3.3692575E-1,-6.427125E-2,-2.6112878E-1,-3.3527855E-2,2.3288156E-1,-7.302123E-2,2.0321421E-1,-3.098595E-1,9.4480745E-2,3.4620285E-1,-3.9481558E-2,-3.372171E-1,-2.2623105E-1,3.381793E-1,8.0641836E-2,-2.2584301E-1,3.3464336E-1,-1.6472587E-1,-2.3992647E-1,-1.419681E-1,2.3782746E-1,-1.7293206E-1,-1.8413748E-1,2.7621773E-1,-2.6668692E-1,-9.2814125E-2,-9.8184235E-2,5.6140427E-2,-1.0350873E-1,1.6335255E-1,-2.226457E-2,-1.8675214E-1,-4.3534823E-2,1.9683684E-1,3.4409118E-1,1.2617737E-1,-9.047234E-2,-4.0926063E-1,2.9868013E-1,5.452903E-2,-1.665115E-1,2.4857031E-1,-3.8962942E-1,-3.243191E-2],"split_indices":[3,100,17,100,100,37,18,104,99,101,0,19,97,37,100,99,18,36,99,101,18,104,0,75,98,97,99,37,36,12,20,105,99,103,105,99,104,99,101,18,103,18,105,18,105,37,105,101,57,3,0,0,0,0,99,0,0,75,0,100,18,0,0,0,0,0,0,0,0,0,0,0,0,0,0,0,0,0,0,0,0,0,0,0,0,0,0,0,0,0,0,0,0,0,0,0,0,0,0,0,0,0,0,0,0,0,0],"split_type":[0,0,0,0,0,0,0,0,0,0,0,0,0,0,0,0,0,0,0,0,0,0,0,0,0,0,0,0,0,0,0,0,0,0,0,0,0,0,0,0,0,0,0,0,0,0,0,0,0,0,0,0,0,0,0,0,0,0,0,0,0,0,0,0,0,0,0,0,0,0,0,0,0,0,0,0,0,0,0,0,0,0,0,0,0,0,0,0,0,0,0,0,0,0,0,0,0,0,0,0,0,0,0,0,0,0,0],"sum_hessian":[3.140583E3,6.027526E2,2.5378303E3,3.6666376E2,2.3608884E2,2.4538225E3,8.400787E1,2.5708783E2,1.0957594E2,7.2012E1,1.6407684E2,2.4231987E3,3.062383E1,8.931007E0,7.5076866E1,1.798693E2,7.721853E1,8.965103E1,1.9924908E1,7.671662E0,6.434034E1,2.1417324E1,1.4265952E2,6.906146E2,1.732584E3,2.8546286E1,2.077546E0,5.112013E0,3.8189943E0,5.655699E1,1.8519878E1,1.4194716E2,3.7922134E1,5.586766E1,2.1350864E1,5.787839E0,8.386319E1,1.1556568E1,8.3683405E0,3.9310925E0,3.7405696E0,6.1623585E1,2.7167559E0,2.6261053E0,1.879122E1,4.0269275E2,2.8792188E2,1.5892976E3,1.4328636E2,2.6881882E1,1.6644022E0,1.0477026E0,1.0298432E0,1.6790563E0,3.4329567E0,2.6859756E0,1.1330187E0,5.5352993E1,1.2039963E0,1.6250082E1,2.2697973E0,6.3912598E1,7.803456E1,2.3240723E1,1.4681411E1,5.048367E1,5.3839936E0,7.476651E0,1.3874213E1,1.1122276E0,4.6756115E0,7.19598E1,1.1903395E1,1.3135124E0,1.0243055E1,3.2954535E0,5.0728865E0,1.2473953E0,2.6836972E0,2.7202926E0,1.020277E0,2.8794794E1,3.282879E1,1.6999074E0,1.0168484E0,1.5520281E0,1.0740772E0,1.5485581E1,3.3056374E0,1.4076755E2,2.619252E2,3.5741493E1,2.521804E2,1.4659237E3,1.23373985E2,5.2779804E1,9.050656E1,2.5188547E1,1.693336E0,1.076526E0,2.3564305E0,5.398646E1,1.3665316E0,1.9245892E0,1.4325493E1,1.1541324E0,1.115665E0],"tree_param":{"num_deleted":"0","num_feature":"111","num_nodes":"107","size_leaf_vector":"0"}},{"base_weights":[-3.260674E-2,5.0078243E-2,-2.6677048E-1,1.3857588E-2,5.625726E-1,-7.7307165E-1,-7.452965E-2,5.681974E-2,-3.5874358E-1,1.1925292E0,3.950552E-1,-8.009775E-1,5.2610004E-1,3.434556E-2,-3.888771E-1,1.0204284E-2,6.4160645E-1,-7.2141176E-1,3.6139104E-1,3.8448748E-1,3.808851E-1,-3.2738924E-1,8.0322164E-1,-5.8646715E-1,-9.0936935E-1,3.0874726E-1,-1.6237563E-1,9.839289E-2,-5.791442E-1,-4.5701912E-1,1.0761188E0,-7.368593E-2,3.368742E-1,8.5157895E-1,-9.199499E-1,-9.429611E-1,6.847984E-1,2.4586476E-1,4.020706E-1,2.2920072E-1,-1.2781583E-1,9.353079E-2,-2.0387094E0,9.5326275E-1,1.3237336E-1,8.281355E-1,-6.629822E-1,-2.7468395E-1,-1.628028E-2,-1.1770323E-1,4.528842E-2,1.840791E-1,-4.1276166E-1,-1.279571E0,-2.8170352E-3,-5.28373E-1,8.709347E-1,7.923802E-2,3.559661E-1,-3.962791E-2,9.1402575E-2,-1.8849437E-1,1.4803809E-1,3.2318753E-1,-8.864461E-2,-3.1476322E-1,1.5652576E-1,2.6926017E-1,-3.0050498E-1,2.541773E-1,-2.7598664E-1,8.784682E-3,2.5432268E-1,9.329858E-2,-5.4363024E-1,-7.4818754E-1,1.6646492E-1,1.7082502E-1,3.0249986E-1,-2.9716122E-1,2.0671661E-1,-1.7837217E-1,5.1312876E-1,-2.8524163E-1,-1.4397989E-1,-1.277434E-1,8.101711E-2,-2.614047E-1,2.553512E-2,-5.035414E-1,-8.921465E-2,2.7358133E-1,-7.4629806E-2,-4.0707436E-1,-1.2456413E-1,2.8804678E-1,4.4081345E-2],"categories":[],"categories_nodes":[],"categories_segments":[],"categories_sizes":[],"default_left":[0,0,0,0,0,0,0,0,0,0,0,0,0,0,0,0,0,0,0,0,0,0,0,0,0,0,0,0,0,0,0,0,0,0,0,0,0,0,0,0,0,0,0,0,0,0,0,0,0,0,0,0,0,0,0,0,0,0,0,0,0,0,0,0,0,0,0,0,0,0,0,0,0,0,0,0,0,0,0,0,0,0,0,0,0,0,0,0,0,0,0,0,0,0,0,0,0],"id":15,"left_children":[1,3,5,7,9,11,13,15,17,19,21,23,25,27,29,31,33,35,37,-1,39,41,43,45,47,-1,49,51,53,55,57,59,61,63,65,67,69,71,-1,-1,-1,73,75,77,79,81,83,-1,-1,-1,-1,85,87,89,91,93,95,-1,-1,-1,-1,-1,-1,-1,-1,-1,-1,-1,-1,-1,-1,-1,-1,-1,-1,-1,-1,-1,-1,-1,-1,-1,-1,-1,-1,-1,-1,-1,-1,-1,-1,-1,-1,-1,-1,-1,-1],"loss_changes":[5.8474968E1,4.1430447E1,7.6650406E1,3.3412346E1,1.507642E1,8.280762E0,1.9600996E1,5.1002422E1,5.661915E1,1.7140083E0,3.5022305E1,4.410385E0,1.9549673E0,1.6796013E1,1.519779E1,4.754582E1,